Language model created by QuickLM on Sat Oct 31 22:40:32 EDT 2015
Copyright (c) 1996-2010 Carnegie Mellon University and Alexander I. Rudnicky

The model is in standard ARPA format, designed by Doug Paul while he was at MITRE.

The code that was used to produce this language model is available in Open Source.
Please visit http://www.speech.cs.cmu.edu/tools/ for more information

The (fixed) discount mass is 0.5. The backoffs are computed using the ratio method.
This model based on a corpus of 3871 sentences and 3439 words

\data\
ngram 1=3439
ngram 2=7271
ngram 3=4242

\1-grams:
-0.7943 </s> -0.3010
-0.7943 <s> -0.2156
-4.0811 A -0.2250
-4.3821 A.M. -0.2250
-4.3821 ABANDON -0.2250
-4.3821 ABANDONED -0.2250
-4.3821 ABILITY -0.2250
-4.3821 ABLE -0.2250
-3.5370 ABOUT -0.2246
-4.3821 ABOVE -0.2250
-4.3821 ABROAD -0.2250
-4.3821 ABSENCE -0.2250
-4.3821 ABSENT -0.2250
-4.3821 ABSOLUTE -0.2250
-4.3821 ABSOLUTELY -0.2250
-4.3821 ABSORB -0.2250
-4.0811 ABUSE -0.2250
-4.3821 ACADEMIC -0.2250
-4.3821 ACCENT -0.2250
-4.3821 ACCEPT -0.2250
-4.3821 ACCEPTABLE -0.2250
-4.3821 ACCESS -0.2250
-4.3821 ACCIDENT -0.2250
-4.3821 ACCIDENTAL -0.2250
-4.3821 ACCIDENTALLY -0.2250
-4.3821 ACCOMMODATION -0.2250
-4.3821 ACCOMPANY -0.2250
-4.3821 ACCORDING -0.3005
-4.0811 ACCOUNT -0.2248
-4.3821 ACCURATE -0.2250
-4.3821 ACCURATELY -0.2250
-4.3821 ACCUSE -0.2250
-4.3821 ACHIEVE -0.2250
-4.3821 ACHIEVEMENT -0.2250
-4.3821 ACID -0.2250
-4.3821 ACKNOWLEDGE -0.2250
-4.3821 ACQUIRE -0.2250
-4.0811 ACROSS -0.2250
-4.3821 ACT -0.2250
-4.3821 ACTION -0.2250
-4.3821 ACTIVE -0.2250
-4.3821 ACTIVELY -0.2250
-4.3821 ACTIVITY -0.2250
-4.3821 ACTOR -0.2250
-4.3821 ACTRESS -0.2250
-4.3821 ACTUAL -0.2250
-4.3821 ACTUALLY -0.2250
-4.3821 AD -0.2250
-4.3821 ADAPT -0.2250
-3.7801 ADD -0.2227
-4.3821 ADDITION -0.2250
-4.3821 ADDITIONAL -0.2250
-4.3821 ADDRESS -0.2250
-4.3821 ADEQUATE -0.2250
-4.3821 ADEQUATELY -0.2250
-4.3821 ADJUST -0.2250
-4.3821 ADMIRATION -0.2250
-4.3821 ADMIRE -0.2250
-4.3821 ADMIT -0.2250
-4.3821 ADOPT -0.2250
-4.3821 ADULT -0.2250
-4.3821 ADVANCE -0.2250
-4.3821 ADVANCED -0.2250
-4.3821 ADVANTAGE -0.2250
-4.3821 ADVENTURE -0.2250
-4.3821 ADVERT -0.2250
-4.3821 ADVERTISE -0.2250
-4.3821 ADVERTISEMENT -0.2250
-4.3821 ADVERTISING -0.2250
-4.3821 ADVICE -0.2250
-4.3821 ADVISE -0.2250
-4.3821 AFFAIR -0.2250
-4.3821 AFFECT -0.2250
-4.3821 AFFECTION -0.2250
-4.3821 AFFORD -0.2250
-4.3821 AFRAID -0.2250
-3.9050 AFTER -0.2250
-4.3821 AFTERNOON -0.2250
-4.3821 AFTERWARDS -0.2250
-4.3821 AGAIN -0.2250
-4.3821 AGAINST -0.2250
-4.3821 AGE -0.2250
-4.3821 AGED -0.2250
-4.3821 AGENCY -0.2250
-4.3821 AGENT -0.2250
-4.3821 AGGRESSIVE -0.2250
-4.3821 AGO -0.2250
-4.3821 AGREE -0.2250
-4.3821 AGREEMENT -0.2250
-4.0811 AHEAD -0.2250
-4.3821 AID -0.2250
-4.3821 AIM -0.2250
-4.3821 AIR -0.2250
-4.3821 AIRCRAFT -0.2250
-4.3821 AIRPORT -0.2250
-4.3821 ALARM -0.2250
-4.3821 ALARMED -0.2250
-4.3821 ALARMING -0.2250
-4.3821 ALCOHOL -0.2250
-4.3821 ALCOHOLIC -0.2250
-4.3821 ALIVE -0.2250
-4.0811 ALL -0.2250
-4.3821 ALLIED -0.2250
-4.0811 ALLOW -0.2248
-4.3821 ALLY -0.2250
-4.3821 ALMOST -0.2250
-4.3821 ALONE -0.2250
-4.3821 ALONG -0.2250
-4.3821 ALONGSIDE -0.2250
-4.3821 ALOUD -0.2250
-4.3821 ALPHABET -0.2250
-4.3821 ALPHABETICAL -0.2250
-4.3821 ALPHABETICALLY -0.2250
-4.3821 ALREADY -0.2250
-4.3821 ALSO -0.2250
-4.3821 ALTER -0.2250
-4.3821 ALTERNATIVE -0.2250
-4.3821 ALTERNATIVELY -0.2250
-4.3821 ALTHOUGH -0.2250
-4.3821 ALTOGETHER -0.2250
-4.3821 ALWAYS -0.2250
-4.3821 AMAZE -0.2250
-4.3821 AMAZED -0.2250
-4.3821 AMAZING -0.2250
-4.3821 AMBITION -0.2250
-4.3821 AMBULANCE -0.2250
-4.3821 AMONG -0.2250
-4.0811 AMOUNT -0.2244
-4.3821 AMUSE -0.2250
-4.3821 AMUSED -0.2250
-4.3821 AMUSING -0.2250
-4.3821 ANALYSE -0.2250
-4.3821 ANALYSIS -0.2250
-4.3821 ANCIENT -0.2250
-4.3821 AND -0.2250
-4.3821 ANGER -0.2250
-4.3821 ANGLE -0.2250
-4.3821 ANGRILY -0.2250
-4.3821 ANGRY -0.2250
-4.3821 ANIMAL -0.2250
-4.3821 ANKLE -0.2250
-4.3821 ANNIVERSARY -0.2250
-4.3821 ANNOUNCE -0.2250
-4.3821 ANNOY -0.2250
-4.3821 ANNOYED -0.2250
-4.3821 ANNOYING -0.2250
-4.3821 ANNUAL -0.2250
-4.3821 ANNUALLY -0.2250
-4.0811 ANOTHER -0.2250
-4.3821 ANSWER -0.2250
-4.3821 ANTI- -0.2250
-4.3821 ANTICIPATE -0.2250
-4.3821 ANXIETY -0.2250
-4.3821 ANXIOUS -0.2250
-4.3821 ANXIOUSLY -0.2250
-4.3821 ANY -0.2250
-4.3821 ANYBODY -0.2250
-4.3821 ANYONE -0.2250
-4.3821 ANYTHING -0.2250
-4.3821 ANYWAY -0.2250
-4.3821 ANYWHERE -0.2250
-3.9050 APART -0.2249
-4.3821 APARTMENT -0.2250
-4.3821 APOLOGIZE -0.2250
-4.3821 APPARENT -0.2250
-4.3821 APPARENTLY -0.2250
-4.3821 APPEAL -0.2250
-4.3821 APPEAR -0.2250
-4.3821 APPEARANCE -0.2250
-4.3821 APPLE -0.2250
-4.3821 APPLICATION -0.2250
-4.3821 APPLY -0.2250
-4.3821 APPOINT -0.2250
-4.3821 APPOINTMENT -0.2250
-4.3821 APPRECIATE -0.2250
-4.3821 APPROACH -0.2250
-4.3821 APPROPRIATE -0.2250
-4.3821 APPROVAL -0.2250
-4.3821 APPROVE -0.2250
-4.3821 APPROVING -0.2250
-4.3821 APPROXIMATE -0.2250
-4.3821 APPROXIMATELY -0.2250
-4.3821 APRIL -0.2250
-4.3821 AREA -0.2250
-4.3821 ARGUE -0.2250
-4.3821 ARGUMENT -0.2250
-4.3821 ARISE -0.2250
-4.3821 ARM -0.2250
-4.3821 ARMED -0.2250
-4.3821 ARMS -0.2250
-4.3821 ARMY -0.2250
-3.7801 AROUND -0.2246
-4.3821 ARRANGE -0.2250
-4.3821 ARRANGEMENT -0.2250
-4.3821 ARREST -0.2250
-4.3821 ARRIVAL -0.2250
-4.0811 ARRIVE -0.2249
-4.3821 ARROW -0.2250
-4.3821 ART -0.2250
-4.3821 ARTICLE -0.2250
-4.3821 ARTIFICIAL -0.2250
-4.3821 ARTIFICIALLY -0.2250
-4.3821 ARTIST -0.2250
-4.3821 ARTISTIC -0.2250
-4.3821 ARTISTICALLY -0.2250
-3.9050 AS -0.2250
-4.3821 ASHAMED -0.2250
-4.0811 ASIDE -0.2249
-4.3821 ASK -0.2250
-4.3821 ASLEEP -0.2250
-4.3821 ASPECT -0.2250
-4.3821 ASSIST -0.2250
-4.3821 ASSISTANCE -0.2250
-4.3821 ASSISTANT -0.2250
-4.3821 ASSOCIATE -0.2250
-4.3821 ASSOCIATED -0.2250
-4.3821 ASSOCIATION -0.2250
-4.3821 ASSUME -0.2250
-4.3821 ASSURE -0.2250
-3.7801 AT -0.2250
-4.3821 ATMOSPHERE -0.2250
-4.3821 ATOM -0.2250
-4.3821 ATTACH -0.2250
-4.3821 ATTACHED -0.2250
-4.3821 ATTACK -0.2250
-4.3821 ATTEMPT -0.2250
-4.3821 ATTEMPTED -0.2250
-4.0811 ATTEND -0.2244
-4.3821 ATTENTION -0.2250
-4.3821 ATTITUDE -0.2250
-4.3821 ATTORNEY -0.2250
-4.3821 ATTRACT -0.2250
-4.3821 ATTRACTION -0.2250
-4.3821 ATTRACTIVE -0.2250
-4.3821 AUDIENCE -0.2250
-4.3821 AUGUST -0.2250
-4.3821 AUNT -0.2250
-4.3821 AUTHOR -0.2250
-4.3821 AUTHORITY -0.2250
-4.3821 AUTOMATIC -0.2250
-4.3821 AUTOMATICALLY -0.2250
-4.3821 AUTUMN -0.2250
-4.3821 AVAILABLE -0.2250
-4.3821 AVERAGE -0.2250
-4.3821 AVOID -0.2250
-4.3821 AWAKE -0.2250
-4.3821 AWARD -0.2250
-4.3821 AWARE -0.2250
-3.1780 AWAY -0.2246
-4.3821 AWAY/OFF -0.2250
-4.3821 AWFUL -0.2250
-4.3821 AWFULLY -0.2250
-4.3821 AWKWARD -0.2250
-4.3821 AWKWARDLY -0.2250
-4.3821 BABY -0.2250
-3.0811 BACK -0.2228
-4.3821 BACKGROUND -0.2250
-4.3821 BACKWARD -0.2250
-4.3821 BACKWARDS -0.2250
-4.3821 BACTERIA -0.2250
-4.3821 BAD -0.2250
-4.3821 BAD-TEMPERED -0.2250
-4.3821 BADLY -0.2250
-4.3821 BAG -0.2250
-4.3821 BAGGAGE -0.2250
-4.3821 BAKE -0.2250
-4.3821 BALANCE -0.2250
-4.3821 BALL -0.2250
-4.3821 BAN -0.2250
-4.3821 BAND -0.2250
-4.3821 BANDAGE -0.2250
-4.3821 BANK -0.2250
-4.3821 BAR -0.2250
-4.3821 BARGAIN -0.2250
-4.3821 BARRIER -0.2250
-4.0811 BASE -0.2243
-4.3821 BASED -0.2250
-4.3821 BASIC -0.2250
-4.3821 BASICALLY -0.2250
-4.3821 BASIS -0.2250
-4.3821 BATH -0.2250
-4.3821 BATHROOM -0.2250
-4.3821 BATTERY -0.2250
-4.3821 BATTLE -0.2250
-4.3821 BAY -0.2250
-4.0811 BE -0.2250
-4.3821 BEACH -0.2250
-4.3821 BEAK -0.2250
-4.3821 BEAR -0.2250
-4.3821 BEARD -0.2250
-4.0811 BEAT -0.2234
-4.3821 BEAUTIFUL -0.2250
-4.3821 BEAUTIFULLY -0.2250
-4.3821 BEAUTY -0.2250
-4.0811 BECAUSE -0.2248
-4.3821 BECOME -0.2250
-4.3821 BED -0.2250
-4.3821 BEDROOM -0.2250
-4.3821 BEEF -0.2250
-4.3821 BEER -0.2250
-4.3821 BEFORE -0.2250
-4.3821 BEGIN -0.2250
-4.3821 BEGINNING -0.2250
-4.3821 BEHALF -0.2250
-4.3821 BEHAVE -0.2250
-4.3821 BEHAVIOUR -0.2250
-4.3821 BEHIND -0.2250
-4.3821 BELIEF -0.2250
-4.0811 BELIEVE -0.2246
-4.3821 BELL -0.2250
-4.0811 BELONG -0.2244
-4.3821 BELOW -0.2250
-4.3821 BELT -0.2250
-4.3821 BEND -0.2250
-4.3821 BENEATH -0.2250
-4.3821 BENEFIT -0.2250
-4.3821 BENT -0.2250
-4.3821 BESIDE -0.2250
-4.3821 BEST -0.2250
-4.3821 BET -0.2250
-4.3821 BETTER -0.2250
-4.3821 BETTING -0.2250
-4.3821 BETWEEN -0.2250
-4.3821 BEYOND -0.2250
-4.3821 BICYCLE -0.2250
-4.3821 BID -0.2250
-4.3821 BIG -0.2250
-4.3821 BIKE -0.2250
-4.3821 BILL -0.2250
-4.3821 BILLION -0.2250
-4.3821 BIN -0.2250
-4.3821 BIOLOGY -0.2250
-4.3821 BIRD -0.2250
-4.3821 BIRTH -0.2250
-4.3821 BIRTHDAY -0.2250
-4.3821 BISCUIT -0.2250
-4.3821 BIT -0.2250
-4.3821 BITE -0.2250
-4.3821 BITTER -0.2250
-4.3821 BITTERLY -0.2250
-4.3821 BLACK -0.2250
-4.3821 BLADE -0.2250
-4.3821 BLAME -0.2250
-4.3821 BLANK -0.2250
-4.3821 BLIND -0.2250
-4.3821 BLOCK -0.2250
-4.3821 BLONDE -0.2250
-4.3821 BLOOD -0.2250
-3.9050 BLOW -0.2221
-4.3821 BLUE -0.2250
-4.3821 BOARD -0.2250
-4.3821 BOAT -0.2250
-4.3821 BODY -0.2250
-4.3821 BOIL -0.2250
-4.3821 BOMB -0.2250
-4.3821 BONE -0.2250
-4.3821 BOOK -0.2250
-4.3821 BOOT -0.2250
-4.3821 BORDER -0.2250
-4.3821 BORE -0.2250
-4.3821 BORED -0.2250
-4.3821 BORING -0.2250
-4.3821 BORN -0.2250
-4.3821 BORROW -0.2250
-4.3821 BOSS -0.2250
-4.3821 BOTH -0.2250
-4.3821 BOTHER -0.2250
-4.3821 BOTTLE -0.2250
-4.3821 BOTTOM -0.2250
-4.3821 BOUND -0.2250
-4.3821 BOWL -0.2250
-4.3821 BOX -0.2250
-4.3821 BOY -0.2250
-4.3821 BOYFRIEND -0.2250
-4.3821 BRAIN -0.2250
-4.3821 BRANCH -0.2250
-4.3821 BRAND -0.2250
-4.3821 BRAVE -0.2250
-4.3821 BREAD -0.2250
-3.5370 BREAK -0.2202
-4.3821 BREAKFAST -0.2250
-4.3821 BREAST -0.2250
-4.3821 BREATH -0.2250
-3.9050 BREATHE -0.2232
-4.3821 BREATHING -0.2250
-4.3821 BREED -0.2250
-4.3821 BRICK -0.2250
-4.3821 BRIDGE -0.2250
-4.3821 BRIEF -0.2250
-4.3821 BRIEFLY -0.2250
-4.3821 BRIGHT -0.2250
-4.3821 BRIGHTLY -0.2250
-4.3821 BRILLIANT -0.2250
-3.6040 BRING -0.2210
-4.3821 BROAD -0.2250
-4.3821 BROADCAST -0.2250
-4.3821 BROADLY -0.2250
-4.3821 BROKEN -0.2250
-4.3821 BROTHER -0.2250
-4.3821 BROWN -0.2250
-4.3821 BRUSH -0.2250
-4.3821 BUBBLE -0.2250
-4.3821 BUDGET -0.2250
-4.0811 BUILD -0.2234
-4.3821 BUILDING -0.2250
-4.3821 BULLET -0.2250
-4.3821 BUNCH -0.2250
-4.0811 BURN -0.2244
-4.3821 BURNT -0.2250
-3.9050 BURST -0.2235
-4.3821 BURY -0.2250
-4.3821 BUS -0.2250
-4.3821 BUSH -0.2250
-4.3821 BUSINESS -0.2250
-4.3821 BUSINESSMAN -0.2250
-4.3821 BUSY -0.2250
-4.3821 BUT -0.2250
-4.3821 BUTTER -0.2250
-4.3821 BUTTON -0.2250
-4.3821 BUY -0.2250
-4.3821 BUYER -0.2250
-3.6832 BY -0.2250
-4.3821 BYE -0.2250
-4.3821 CABINET -0.2250
-4.3821 CABLE -0.2250
-4.3821 CAKE -0.2250
-4.3821 CALCULATE -0.2250
-4.3821 CALCULATION -0.2250
-3.6832 CALL -0.2221
-4.3821 CALLED -0.2250
-4.0811 CALM -0.2244
-4.3821 CALMLY -0.2250
-4.3821 CAMERA -0.2250
-4.3821 CAMP -0.2250
-4.3821 CAMPAIGN -0.2250
-4.3821 CAMPING -0.2250
-4.0811 CAN -0.2250
-4.3821 CANCEL -0.2250
-4.3821 CANCER -0.2250
-4.3821 CANDIDATE -0.2250
-4.3821 CANDY -0.2250
-4.3821 CANNOT -0.2250
-4.3821 CAP -0.2250
-4.3821 CAPABLE -0.2250
-4.3821 CAPACITY -0.2250
-4.3821 CAPITAL -0.2250
-4.3821 CAPTAIN -0.2250
-4.3821 CAPTURE -0.2250
-4.3821 CAR -0.2250
-4.0811 CARD -0.2250
-4.3821 CARDBOARD -0.2250
-4.0811 CARE -0.2248
-4.3821 CAREER -0.2250
-4.3821 CAREFUL -0.2250
-4.3821 CAREFULLY -0.2250
-4.3821 CARELESS -0.2250
-4.3821 CARELESSLY -0.2250
-4.3821 CARPET -0.2250
-4.3821 CARROT -0.2250
-3.9050 CARRY -0.2229
-4.3821 CASE -0.2250
-4.3821 CASH -0.2250
-4.3821 CAST -0.2250
-4.3821 CASTLE -0.2250
-4.3821 CAT -0.2250
-4.0811 CATCH -0.2234
-4.3821 CATEGORY -0.2250
-4.3821 CAUSE -0.2250
-4.3821 CD -0.2250
-4.3821 CEASE -0.2250
-4.3821 CEILING -0.2250
-4.3821 CELEBRATE -0.2250
-4.3821 CELEBRATION -0.2250
-4.0811 CELL -0.2249
-4.0811 CENT -0.2250
-4.3821 CENTIMETRE -0.2250
-4.3821 CENTRAL -0.2250
-4.3821 CENTRE -0.2250
-4.3821 CENTURY -0.2250
-4.3821 CEREMONY -0.2250
-4.3821 CERTAIN -0.2250
-4.3821 CERTAINLY -0.2250
-4.3821 CERTIFICATE -0.2250
-4.3821 CHAIN -0.2250
-4.3821 CHAIR -0.2250
-4.3821 CHAIRMAN -0.2250
-4.3821 CHAIRWOMAN -0.2250
-4.3821 CHALLENGE -0.2250
-4.3821 CHAMBER -0.2250
-4.3821 CHANCE -0.2250
-4.0811 CHANGE -0.2248
-4.3821 CHANNEL -0.2250
-4.3821 CHAPTER -0.2250
-4.3821 CHARACTER -0.2250
-4.3821 CHARACTERISTIC -0.2250
-4.3821 CHARGE -0.2250
-4.3821 CHARITY -0.2250
-4.3821 CHART -0.2250
-4.0811 CHASE -0.2247
-4.3821 CHAT -0.2250
-4.3821 CHEAP -0.2250
-4.3821 CHEAPLY -0.2250
-4.0811 CHEAT -0.2248
-3.5370 CHECK -0.2204
-4.3821 CHEEK -0.2250
-4.3821 CHEERFUL -0.2250
-4.3821 CHEERFULLY -0.2250
-4.3821 CHEESE -0.2250
-4.3821 CHEMICAL -0.2250
-4.3821 CHEMIST -0.2250
-4.3821 CHEMISTRY -0.2250
-4.3821 CHEQUE -0.2250
-4.3821 CHEST -0.2250
-4.3821 CHEW -0.2250
-4.3821 CHICKEN -0.2250
-4.3821 CHIEF -0.2250
-4.3821 CHILD -0.2250
-4.3821 CHIN -0.2250
-4.3821 CHIP -0.2250
-4.3821 CHOCOLATE -0.2250
-4.3821 CHOICE -0.2250
-4.3821 CHOOSE -0.2250
-3.9050 CHOP -0.2238
-4.3821 CHURCH -0.2250
-4.3821 CIGARETTE -0.2250
-4.3821 CINEMA -0.2250
-4.3821 CIRCLE -0.2250
-4.3821 CIRCUMSTANCE -0.2250
-4.3821 CITIZEN -0.2250
-4.3821 CITY -0.2250
-4.3821 CIVIL -0.2250
-4.3821 CLAIM -0.2250
-4.3821 CLAP -0.2250
-4.3821 CLASS -0.2250
-4.3821 CLASSIC -0.2250
-4.3821 CLASSROOM -0.2250
-4.0811 CLEAN -0.2234
-3.9050 CLEAR -0.2221
-4.3821 CLEARLY -0.2250
-4.3821 CLERK -0.2250
-4.3821 CLEVER -0.2250
-4.3821 CLICK -0.2250
-4.3821 CLIENT -0.2250
-4.3821 CLIMATE -0.2250
-4.3821 CLIMB -0.2250
-4.3821 CLIMBING -0.2250
-4.3821 CLOCK -0.2250
-4.0811 CLOSE -0.2250
-4.3821 CLOSED -0.2250
-4.3821 CLOSELY -0.2250
-4.3821 CLOSET -0.2250
-4.3821 CLOTH -0.2250
-4.3821 CLOTHES -0.2250
-4.3821 CLOTHING -0.2250
-4.3821 CLOUD -0.2250
-4.3821 CLUB -0.2250
-4.3821 COACH -0.2250
-4.3821 COAL -0.2250
-4.3821 COAST -0.2250
-4.3821 COAT -0.2250
-4.3821 CODE -0.2250
-4.3821 COFFEE -0.2250
-4.3821 COIN -0.2250
-4.3821 COLD -0.2250
-4.3821 COLDLY -0.2250
-4.3821 COLLAPSE -0.2250
-4.3821 COLLEAGUE -0.2250
-4.3821 COLLECT -0.2250
-4.3821 COLLECTION -0.2250
-4.3821 COLLEGE -0.2250
-4.3821 COLOUR -0.2250
-4.3821 COLOURED -0.2250
-4.3821 COLUMN -0.2250
-4.3821 COMBINATION -0.2250
-4.3821 COMBINE -0.2250
-3.3029 COME -0.2186
-4.3821 COMEDY -0.2250
-4.3821 COMFORT -0.2250
-4.3821 COMFORTABLE -0.2250
-4.3821 COMFORTABLY -0.2250
-4.3821 COMMAND -0.2250
-4.3821 COMMENT -0.2250
-4.3821 COMMERCIAL -0.2250
-4.3821 COMMISSION -0.2250
-4.3821 COMMIT -0.2250
-4.3821 COMMITMENT -0.2250
-4.3821 COMMITTEE -0.2250
-4.3821 COMMON -0.2250
-4.3821 COMMONLY -0.2250
-4.3821 COMMUNICATE -0.2250
-4.3821 COMMUNICATION -0.2250
-4.3821 COMMUNITY -0.2250
-4.3821 COMPANY -0.2250
-4.3821 COMPARE -0.2250
-4.3821 COMPARISON -0.2250
-4.3821 COMPETE -0.2250
-4.3821 COMPETITION -0.2250
-4.3821 COMPETITIVE -0.2250
-4.3821 COMPLAIN -0.2250
-4.3821 COMPLAINT -0.2250
-4.3821 COMPLETE -0.2250
-4.3821 COMPLETELY -0.2250
-4.3821 COMPLEX -0.2250
-4.3821 COMPLICATE -0.2250
-4.3821 COMPLICATED -0.2250
-4.3821 COMPUTER -0.2250
-4.0811 CONCENTRATE -0.2243
-4.3821 CONCENTRATION -0.2250
-4.3821 CONCEPT -0.2250
-4.3821 CONCERN -0.2250
-4.3821 CONCERNED -0.2250
-4.3821 CONCERNING -0.2250
-4.3821 CONCERT -0.2250
-4.3821 CONCLUDE -0.2250
-4.3821 CONCLUSION -0.2250
-4.3821 CONCRETE -0.2250
-4.3821 CONDITION -0.2250
-4.0811 CONDUCT -0.2250
-4.3821 CONFERENCE -0.2250
-4.3821 CONFIDENCE -0.2250
-4.3821 CONFIDENT -0.2250
-4.3821 CONFIDENTLY -0.2250
-4.3821 CONFINE -0.2250
-4.3821 CONFINED -0.2250
-4.3821 CONFIRM -0.2250
-4.3821 CONFLICT -0.2250
-4.3821 CONFRONT -0.2250
-4.3821 CONFUSE -0.2250
-4.3821 CONFUSED -0.2250
-4.3821 CONFUSING -0.2250
-4.3821 CONFUSION -0.2250
-4.3821 CONGRATULATE -0.2250
-4.3821 CONGRATULATION -0.2250
-4.3821 CONGRESS -0.2250
-4.3821 CONNECT -0.2250
-4.3821 CONNECTED -0.2250
-4.3821 CONNECTION -0.2250
-4.3821 CONSCIOUS -0.2250
-4.3821 CONSEQUENCE -0.2250
-4.3821 CONSERVATIVE -0.2250
-4.3821 CONSIDER -0.2250
-4.3821 CONSIDERABLE -0.2250
-4.3821 CONSIDERABLY -0.2250
-4.3821 CONSIDERATION -0.2250
-4.0811 CONSIST -0.2248
-4.3821 CONSTANT -0.2250
-4.3821 CONSTANTLY -0.2250
-4.3821 CONSTRUCT -0.2250
-4.3821 CONSTRUCTION -0.2250
-4.3821 CONSULT -0.2250
-4.3821 CONSUMER -0.2250
-4.3821 CONTACT -0.2250
-4.3821 CONTAIN -0.2250
-4.3821 CONTAINER -0.2250
-4.3821 CONTEMPORARY -0.2250
-4.3821 CONTENT -0.2250
-4.3821 CONTEST -0.2250
-4.3821 CONTEXT -0.2250
-4.3821 CONTINENT -0.2250
-4.3821 CONTINUE -0.2250
-4.3821 CONTINUOUS -0.2250
-4.3821 CONTINUOUSLY -0.2250
-4.0811 CONTRACT -0.2250
-4.0811 CONTRAST -0.2250
-4.3821 CONTRASTING -0.2250
-4.3821 CONTRIBUTE -0.2250
-4.3821 CONTRIBUTION -0.2250
-4.3821 CONTROL -0.2250
-4.3821 CONTROLLED -0.2250
-4.3821 CONVENIENT -0.2250
-4.3821 CONVENTION -0.2250
-4.3821 CONVENTIONAL -0.2250
-4.3821 CONVERSATION -0.2250
-4.3821 CONVERT -0.2250
-4.3821 CONVINCE -0.2250
-4.3821 COOK -0.2250
-4.3821 COOKER -0.2250
-4.3821 COOKIE -0.2250
-4.3821 COOKING -0.2250
-4.0811 COOL -0.2244
-4.3821 COPE -0.2250
-4.3821 COPY -0.2250
-4.3821 CORE -0.2250
-4.3821 CORNER -0.2250
-4.3821 CORRECT -0.2250
-4.3821 CORRECTLY -0.2250
-4.3821 COST -0.2250
-4.3821 COTTAGE -0.2250
-4.3821 COTTON -0.2250
-4.3821 COUGH -0.2250
-4.3821 COUGHING -0.2250
-4.3821 COULD -0.2250
-4.3821 COUNCIL -0.2250
-4.0811 COUNT -0.2243
-4.3821 COUNTER -0.2250
-4.3821 COUNTRY -0.2250
-4.3821 COUNTRYSIDE -0.2250
-4.3821 COUNTY -0.2250
-4.0811 COUPLE -0.2250
-4.3821 COURAGE -0.2250
-4.3821 COURSE -0.2250
-4.3821 COURT -0.2250
-4.3821 COUSIN -0.2250
-4.0811 COVER -0.2234
-4.3821 COVERED -0.2250
-4.3821 COVERING -0.2250
-4.3821 COW -0.2250
-4.3821 CRACK -0.2250
-4.3821 CRACKED -0.2250
-4.3821 CRAFT -0.2250
-4.3821 CRASH -0.2250
-4.3821 CRAZY -0.2250
-4.0811 CREAM -0.2250
-4.3821 CREATE -0.2250
-4.3821 CREATURE -0.2250
-4.0811 CREDIT -0.2250
-4.3821 CRIME -0.2250
-4.3821 CRIMINAL -0.2250
-4.3821 CRISIS -0.2250
-4.3821 CRISP -0.2250
-4.3821 CRITERION -0.2250
-4.3821 CRITICAL -0.2250
-4.3821 CRITICISM -0.2250
-4.3821 CRITICIZE -0.2250
-4.3821 CROP -0.2250
-4.0811 CROSS -0.2237
-4.3821 CROWD -0.2250
-4.3821 CROWDED -0.2250
-4.3821 CROWN -0.2250
-4.3821 CRUCIAL -0.2250
-4.3821 CRUEL -0.2250
-4.3821 CRUSH -0.2250
-4.0811 CRY -0.2237
-4.3821 CULTURAL -0.2250
-4.3821 CULTURE -0.2250
-4.3821 CUP -0.2250
-4.3821 CUPBOARD -0.2250
-4.3821 CURB -0.2250
-4.3821 CURE -0.2250
-4.3821 CURIOUS -0.2250
-4.3821 CURIOUSLY -0.2250
-4.0811 CURL -0.2234
-4.3821 CURLY -0.2250
-4.3821 CURRENT -0.2250
-4.3821 CURRENTLY -0.2250
-4.3821 CURTAIN -0.2250
-4.3821 CURVE -0.2250
-4.3821 CURVED -0.2250
-4.3821 CUSTOM -0.2250
-4.3821 CUSTOMER -0.2250
-4.3821 CUSTOMS -0.2250
-3.6040 CUT -0.2204
-4.3821 CYCLE -0.2250
-4.3821 CYCLING -0.2250
-4.3821 DAD -0.2250
-4.3821 DAILY -0.2250
-4.3821 DAMAGE -0.2250
-4.3821 DAMP -0.2250
-4.3821 DANCE -0.2250
-4.3821 DANCER -0.2250
-4.3821 DANCING -0.2250
-4.3821 DANGER -0.2250
-4.3821 DANGEROUS -0.2250
-4.3821 DARE -0.2250
-4.3821 DARK -0.2250
-4.3821 DATA -0.2250
-4.0811 DATE -0.2246
-4.3821 DAUGHTER -0.2250
-4.3821 DAY -0.2250
-4.3821 DEAD -0.2250
-4.3821 DEAF -0.2250
-3.9050 DEAL -0.2242
-4.3821 DEAR -0.2250
-4.3821 DEATH -0.2250
-4.3821 DEBATE -0.2250
-4.3821 DEBT -0.2250
-4.3821 DECADE -0.2250
-4.3821 DECAY -0.2250
-4.3821 DECEMBER -0.2250
-4.0811 DECIDE -0.2243
-4.3821 DECISION -0.2250
-4.3821 DECLARE -0.2250
-4.3821 DECLINE -0.2250
-4.3821 DECORATE -0.2250
-4.3821 DECORATION -0.2250
-4.3821 DECORATIVE -0.2250
-4.3821 DECREASE -0.2250
-4.3821 DEEP -0.2250
-4.3821 DEEPLY -0.2250
-4.3821 DEFEAT -0.2250
-4.3821 DEFENCE -0.2250
-4.3821 DEFEND -0.2250
-4.3821 DEFINE -0.2250
-4.3821 DEFINITE -0.2250
-4.3821 DEFINITELY -0.2250
-4.3821 DEFINITION -0.2250
-4.3821 DEGREE -0.2250
-4.3821 DELAY -0.2250
-4.3821 DELIBERATE -0.2250
-4.3821 DELIBERATELY -0.2250
-4.3821 DELICATE -0.2250
-4.3821 DELIGHT -0.2250
-4.3821 DELIGHTED -0.2250
-4.3821 DELIVER -0.2250
-4.3821 DELIVERY -0.2250
-4.3821 DEMAND -0.2250
-4.3821 DEMONSTRATE -0.2250
-4.3821 DENTIST -0.2250
-4.3821 DENY -0.2250
-4.3821 DEPARTMENT -0.2250
-4.3821 DEPARTURE -0.2250
-4.0811 DEPEND -0.2243
-4.3821 DEPOSIT -0.2250
-4.3821 DEPRESS -0.2250
-4.3821 DEPRESSED -0.2250
-4.3821 DEPRESSING -0.2250
-4.3821 DEPTH -0.2250
-4.0811 DERIVE -0.2249
-4.3821 DESCRIBE -0.2250
-4.3821 DESCRIPTION -0.2250
-4.0811 DESERT -0.2250
-4.3821 DESERTED -0.2250
-4.3821 DESERVE -0.2250
-4.3821 DESIGN -0.2250
-4.3821 DESIRE -0.2250
-4.3821 DESK -0.2250
-4.3821 DESPERATE -0.2250
-4.3821 DESPERATELY -0.2250
-4.3821 DESPITE -0.2250
-4.3821 DESTROY -0.2250
-4.3821 DESTRUCTION -0.2250
-4.3821 DETAIL -0.2250
-4.3821 DETAILED -0.2250
-4.3821 DETERMINATION -0.2250
-4.3821 DETERMINE -0.2250
-4.3821 DETERMINED -0.2250
-4.3821 DEVELOP -0.2250
-4.3821 DEVELOPMENT -0.2250
-4.3821 DEVICE -0.2250
-4.0811 DEVOTE -0.2244
-4.3821 DEVOTED -0.2250
-4.3821 DIAGRAM -0.2250
-4.3821 DIAMOND -0.2250
-4.3821 DIARY -0.2250
-4.3821 DICTIONARY -0.2250
-3.9050 DIE -0.2233
-4.3821 DIET -0.2250
-4.3821 DIFFERENCE -0.2250
-4.3821 DIFFERENT -0.2250
-4.3821 DIFFERENTLY -0.2250
-4.3821 DIFFICULT -0.2250
-4.3821 DIFFICULTY -0.2250
-4.3821 DIG -0.2250
-4.3821 DIGITAL -0.2250
-4.3821 DINNER -0.2250
-4.3821 DIRECT -0.2250
-4.3821 DIRECTION -0.2250
-4.3821 DIRECTLY -0.2250
-4.3821 DIRECTOR -0.2250
-4.3821 DIRT -0.2250
-4.3821 DIRTY -0.2250
-4.3821 DISABLED -0.2250
-4.3821 DISADVANTAGE -0.2250
-4.0811 DISAGREE -0.2246
-4.3821 DISAGREEMENT -0.2250
-4.3821 DISAPPEAR -0.2250
-4.3821 DISAPPOINT -0.2250
-4.3821 DISAPPOINTED -0.2250
-4.3821 DISAPPOINTING -0.2250
-4.3821 DISAPPOINTMENT -0.2250
-4.3821 DISAPPROVAL -0.2250
-4.3821 DISAPPROVE -0.2250
-4.3821 DISAPPROVING -0.2250
-4.3821 DISASTER -0.2250
-4.3821 DISC -0.2250
-4.3821 DISCIPLINE -0.2250
-4.3821 DISCOUNT -0.2250
-4.3821 DISCOVER -0.2250
-4.3821 DISCOVERY -0.2250
-4.3821 DISCUSS -0.2250
-4.3821 DISCUSSION -0.2250
-4.3821 DISEASE -0.2250
-4.3821 DISGUST -0.2250
-4.3821 DISGUSTED -0.2250
-4.3821 DISGUSTING -0.2250
-4.3821 DISH -0.2250
-4.3821 DISHONEST -0.2250
-4.3821 DISHONESTLY -0.2250
-4.3821 DISK -0.2250
-4.3821 DISLIKE -0.2250
-4.3821 DISMISS -0.2250
-4.3821 DISPLAY -0.2250
-4.3821 DISSOLVE -0.2250
-4.3821 DISTANCE -0.2250
-4.3821 DISTINGUISH -0.2250
-4.3821 DISTRIBUTE -0.2250
-4.3821 DISTRIBUTION -0.2250
-4.3821 DISTRICT -0.2250
-4.3821 DISTURB -0.2250
-4.3821 DISTURBING -0.2250
-4.3821 DIVIDE -0.2250
-4.3821 DIVISION -0.2250
-4.3821 DIVORCE -0.2250
-4.3821 DIVORCED -0.2250
-3.7801 DO -0.2230
-4.3821 DOCTOR -0.2250
-4.3821 DOCUMENT -0.2250
-4.3821 DOG -0.2250
-3.9050 DOING -0.2250
-4.3821 DOLLAR -0.2250
-4.3821 DOMESTIC -0.2250
-4.3821 DOMINATE -0.2250
-4.3821 DOOR -0.2250
-4.3821 DOT -0.2250
-4.3821 DOUBLE -0.2250
-4.3821 DOUBT -0.2250
-2.9672 DOWN -0.2243
-4.3821 DOWNSTAIRS -0.2250
-4.3821 DOWNWARD -0.2250
-4.3821 DOWNWARDS -0.2250
-4.3821 DOZEN -0.2250
-4.3821 DRAFT -0.2250
-4.3821 DRAG -0.2250
-4.3821 DRAMA -0.2250
-4.3821 DRAMATIC -0.2250
-4.3821 DRAMATICALLY -0.2250
-4.3821 DRAW -0.2250
-4.3821 DRAWER -0.2250
-4.3821 DRAWING -0.2250
-4.3821 DREAM -0.2250
-4.0811 DRESS -0.2234
-4.3821 DRESSED -0.2250
-4.3821 DRINK -0.2250
-3.9050 DRIVE -0.2240
-4.3821 DRIVER -0.2250
-4.3821 DRIVING -0.2250
-4.0811 DROP -0.2237
-4.3821 DRUG -0.2250
-4.3821 DRUGSTORE -0.2250
-4.3821 DRUM -0.2250
-4.3821 DRUNK -0.2250
-3.9050 DRY -0.2228
-4.3821 DUE -0.2250
-4.3821 DULL -0.2250
-4.3821 DUMP -0.2250
-4.3821 DURING -0.2250
-4.3821 DUST -0.2250
-4.3821 DUTY -0.2250
-4.3821 DVD -0.2250
-4.3821 DYING -0.2250
-4.3821 E.G. -0.2250
-4.0811 EACH -0.2250
-4.3821 EAR -0.2250
-4.3821 EARLY -0.2250
-4.3821 EARN -0.2250
-4.3821 EARTH -0.2250
-4.3821 EASE -0.2250
-4.3821 EASILY -0.2250
-4.3821 EAST -0.2250
-4.3821 EASTERN -0.2250
-4.3821 EASY -0.2250
-3.9050 EAT -0.2221
-4.3821 ECONOMIC -0.2250
-4.3821 ECONOMY -0.2250
-4.3821 EDGE -0.2250
-4.3821 EDITION -0.2250
-4.3821 EDITOR -0.2250
-4.3821 EDUCATE -0.2250
-4.3821 EDUCATED -0.2250
-4.3821 EDUCATION -0.2250
-4.3821 EFFECT -0.2250
-4.3821 EFFECTIVE -0.2250
-4.3821 EFFECTIVELY -0.2250
-4.3821 EFFICIENT -0.2250
-4.3821 EFFICIENTLY -0.2250
-4.3821 EFFORT -0.2250
-4.3821 EGG -0.2250
-4.3821 EIGHT -0.2250
-4.3821 EIGHTEEN -0.2250
-4.3821 EIGHTEENTH -0.2250
-4.3821 EIGHTH -0.2250
-4.3821 EIGHTIETH -0.2250
-4.3821 EIGHTY -0.2250
-4.3821 EITHER -0.2250
-4.3821 ELBOW -0.2250
-4.3821 ELDERLY -0.2250
-4.3821 ELECT -0.2250
-4.3821 ELECTION -0.2250
-4.3821 ELECTRIC -0.2250
-4.3821 ELECTRICAL -0.2250
-4.3821 ELECTRICITY -0.2250
-4.3821 ELECTRONIC -0.2250
-4.3821 ELEGANT -0.2250
-4.3821 ELEMENT -0.2250
-4.3821 ELEVATOR -0.2250
-4.3821 ELEVEN -0.2250
-4.3821 ELEVENTH -0.2250
-4.3821 ELSE -0.2250
-4.3821 ELSEWHERE -0.2250
-4.3821 EMAIL -0.2250
-4.3821 EMBARRASS -0.2250
-4.3821 EMBARRASSED -0.2250
-4.3821 EMBARRASSING -0.2250
-4.3821 EMBARRASSMENT -0.2250
-4.3821 EMERGE -0.2250
-4.3821 EMERGENCY -0.2250
-4.3821 EMOTION -0.2250
-4.3821 EMOTIONAL -0.2250
-4.3821 EMOTIONALLY -0.2250
-4.3821 EMPHASIS -0.2250
-4.3821 EMPHASIZE -0.2250
-4.3821 EMPIRE -0.2250
-4.3821 EMPLOY -0.2250
-4.3821 EMPLOYEE -0.2250
-4.3821 EMPLOYER -0.2250
-4.3821 EMPLOYMENT -0.2250
-4.3821 EMPTY -0.2250
-4.3821 ENABLE -0.2250
-4.3821 ENCOUNTER -0.2250
-4.3821 ENCOURAGE -0.2250
-4.3821 ENCOURAGEMENT -0.2250
-3.9050 END -0.2230
-4.3821 ENDING -0.2250
-4.3821 ENEMY -0.2250
-4.3821 ENERGY -0.2250
-4.3821 ENGAGE -0.2250
-4.3821 ENGAGED -0.2250
-4.3821 ENGINE -0.2250
-4.3821 ENGINEER -0.2250
-4.3821 ENGINEERING -0.2250
-4.3821 ENJOY -0.2250
-4.3821 ENJOYABLE -0.2250
-4.3821 ENJOYMENT -0.2250
-4.3821 ENORMOUS -0.2250
-4.3821 ENOUGH -0.2250
-4.3821 ENQUIRY -0.2250
-4.3821 ENSURE -0.2250
-4.3821 ENTER -0.2250
-4.3821 ENTERTAIN -0.2250
-4.3821 ENTERTAINER -0.2250
-4.3821 ENTERTAINING -0.2250
-4.3821 ENTERTAINMENT -0.2250
-4.3821 ENTHUSIASM -0.2250
-4.3821 ENTHUSIASTIC -0.2250
-4.3821 ENTHUSIASTICALLY -0.2250
-4.3821 ENTIRE -0.2250
-4.3821 ENTIRELY -0.2250
-4.3821 ENTITLE -0.2250
-4.3821 ENTRANCE -0.2250
-4.3821 ENTRY -0.2250
-4.3821 ENVELOPE -0.2250
-4.3821 ENVIRONMENT -0.2250
-4.3821 ENVIRONMENTAL -0.2250
-4.3821 EQUAL -0.2250
-4.3821 EQUALLY -0.2250
-4.3821 EQUIPMENT -0.2250
-4.3821 EQUIVALENT -0.2250
-4.3821 ERROR -0.2250
-4.3821 ESCAPE -0.2250
-4.3821 ESPECIALLY -0.2250
-4.3821 ESSAY -0.2250
-4.3821 ESSENTIAL -0.2250
-4.3821 ESSENTIALLY -0.2250
-4.3821 ESTABLISH -0.2250
-4.3821 ESTATE -0.2250
-4.3821 ESTIMATE -0.2250
-4.3821 ETC. -0.2250
-4.3821 EURO -0.2250
-4.3821 EVEN -0.2250
-4.3821 EVENING -0.2250
-4.3821 EVENT -0.2250
-4.3821 EVENTUALLY -0.2250
-4.3821 EVER -0.2250
-4.3821 EVERY -0.2250
-4.3821 EVERYBODY -0.2250
-4.3821 EVERYONE -0.2250
-4.3821 EVERYTHING -0.2250
-4.3821 EVERYWHERE -0.2250
-4.3821 EVIDENCE -0.2250
-4.3821 EVIL -0.2250
-4.3821 EX- -0.2250
-4.3821 EXACT -0.2250
-4.3821 EXACTLY -0.2250
-4.3821 EXAGGERATE -0.2250
-4.3821 EXAGGERATED -0.2250
-4.3821 EXAM -0.2250
-4.3821 EXAMINATION -0.2250
-4.3821 EXAMINE -0.2250
-4.3821 EXAMPLE -0.2250
-4.3821 EXCELLENT -0.2250
-4.3821 EXCEPT -0.2250
-4.3821 EXCEPTION -0.2250
-4.3821 EXCHANGE -0.2250
-4.3821 EXCITE -0.2250
-4.3821 EXCITED -0.2250
-4.3821 EXCITEMENT -0.2250
-4.3821 EXCITING -0.2250
-4.3821 EXCLUDE -0.2250
-4.3821 EXCLUDING -0.2250
-4.0811 EXCUSE -0.2250
-4.3821 EXECUTIVE -0.2250
-4.3821 EXERCISE -0.2250
-4.3821 EXHIBIT -0.2250
-4.3821 EXHIBITION -0.2250
-4.3821 EXIST -0.2250
-4.3821 EXISTENCE -0.2250
-4.3821 EXIT -0.2250
-4.3821 EXPAND -0.2250
-4.3821 EXPECT -0.2250
-4.3821 EXPECTATION -0.2250
-4.3821 EXPECTED -0.2250
-4.3821 EXPENSE -0.2250
-4.3821 EXPENSIVE -0.2250
-4.3821 EXPERIENCE -0.2250
-4.3821 EXPERIENCED -0.2250
-4.3821 EXPERIMENT -0.2250
-4.3821 EXPERT -0.2250
-4.3821 EXPLAIN -0.2250
-4.3821 EXPLANATION -0.2250
-4.3821 EXPLODE -0.2250
-4.3821 EXPLORE -0.2250
-4.3821 EXPLOSION -0.2250
-4.0811 EXPORT -0.2250
-4.3821 EXPOSE -0.2250
-4.3821 EXPRESS -0.2250
-4.3821 EXPRESSION -0.2250
-4.3821 EXTEND -0.2250
-4.3821 EXTENSION -0.2250
-4.3821 EXTENSIVE -0.2250
-4.3821 EXTENT -0.2250
-4.3821 EXTRA -0.2250
-4.3821 EXTRAORDINARY -0.2250
-4.3821 EXTREME -0.2250
-4.3821 EXTREMELY -0.2250
-4.3821 EYE -0.2250
-4.0811 FACE -0.2234
-4.3821 FACILITY -0.2250
-4.3821 FACT -0.2250
-4.3821 FACTOR -0.2250
-4.3821 FACTORY -0.2250
-4.3821 FAIL -0.2250
-4.3821 FAILURE -0.2250
-4.3821 FAINT -0.2250
-4.3821 FAINTLY -0.2250
-4.3821 FAIR -0.2250
-4.3821 FAIRLY -0.2250
-4.3821 FAITH -0.2250
-4.3821 FAITHFUL -0.2250
-4.3821 FAITHFULLY -0.2250
-4.3821 FALL -0.2250
-4.3821 FALSE -0.2250
-4.3821 FAME -0.2250
-4.3821 FAMILIAR -0.2250
-4.3821 FAMILY -0.2250
-4.3821 FAMOUS -0.2250
-4.3821 FAN -0.2250
-4.3821 FANCY -0.2250
-4.3821 FAR -0.2250
-4.3821 FARM -0.2250
-4.3821 FARMER -0.2250
-4.3821 FARMING -0.2250
-4.3821 FARTHER -0.2250
-4.3821 FARTHEST -0.2250
-4.3821 FASHION -0.2250
-4.3821 FASHIONABLE -0.2250
-4.3821 FAST -0.2250
-4.3821 FASTEN -0.2250
-4.3821 FAT -0.2250
-4.3821 FATHER -0.2250
-4.3821 FAUCET -0.2250
-4.3821 FAULT -0.2250
-4.3821 FAVOUR -0.2250
-4.3821 FAVOURITE -0.2250
-4.3821 FEAR -0.2250
-4.3821 FEATHER -0.2250
-4.3821 FEATURE -0.2250
-4.3821 FEBRUARY -0.2250
-4.3821 FEDERAL -0.2250
-4.3821 FEE -0.2250
-4.3821 FEED -0.2250
-4.3821 FEEL -0.2250
-4.3821 FEELING -0.2250
-4.3821 FELLOW -0.2250
-4.3821 FEMALE -0.2250
-4.3821 FENCE -0.2250
-4.3821 FESTIVAL -0.2250
-4.3821 FETCH -0.2250
-4.3821 FEVER -0.2250
-4.3821 FEW -0.2250
-4.3821 FIELD -0.2250
-4.3821 FIFTEEN -0.2250
-4.3821 FIFTEENTH -0.2250
-4.3821 FIFTH -0.2250
-4.3821 FIFTIETH -0.2250
-4.3821 FIFTY -0.2250
-4.3821 FIGHT -0.2250
-4.3821 FIGHTING -0.2250
-4.0811 FIGURE -0.2237
-4.3821 FILE -0.2250
-3.7801 FILL -0.2216
-4.3821 FILM -0.2250
-4.3821 FINAL -0.2250
-4.3821 FINALLY -0.2250
-4.3821 FINANCE -0.2250
-4.3821 FINANCIAL -0.2250
-4.0811 FIND -0.2237
-4.3821 FINE -0.2250
-4.3821 FINELY -0.2250
-4.3821 FINGER -0.2250
-4.0811 FINISH -0.2244
-4.3821 FINISHED -0.2250
-4.3821 FIRE -0.2250
-4.3821 FIRM -0.2250
-4.3821 FIRMLY -0.2250
-4.3821 FIRST -0.2250
-4.3821 FISH -0.2250
-4.3821 FISHING -0.2250
-4.0811 FIT -0.2246
-4.3821 FIVE -0.2250
-4.3821 FIX -0.2250
-4.3821 FIXED -0.2250
-4.3821 FLAG -0.2250
-4.3821 FLAME -0.2250
-4.3821 FLASH -0.2250
-4.3821 FLAT -0.2250
-4.3821 FLAVOUR -0.2250
-4.3821 FLESH -0.2250
-4.3821 FLIGHT -0.2250
-4.3821 FLOAT -0.2250
-4.3821 FLOOD -0.2250
-4.3821 FLOODED -0.2250
-4.3821 FLOODING -0.2250
-4.3821 FLOOR -0.2250
-4.3821 FLOUR -0.2250
-4.3821 FLOW -0.2250
-4.3821 FLOWER -0.2250
-4.3821 FLU -0.2250
-4.3821 FLY -0.2250
-4.3821 FLYING -0.2250
-4.3821 FOCUS -0.2250
-4.3821 FOLD -0.2250
-4.3821 FOLDING -0.2250
-4.0811 FOLLOW -0.2234
-4.3821 FOLLOWING -0.2250
-4.3821 FOOD -0.2250
-4.3821 FOOT -0.2250
-4.3821 FOOTBALL -0.2250
-3.3029 FOR -0.2250
-4.3821 FORCE -0.2250
-4.3821 FORECAST -0.2250
-4.3821 FOREIGN -0.2250
-4.3821 FOREST -0.2250
-4.3821 FOREVER -0.2250
-4.3821 FORGET -0.2250
-4.3821 FORGIVE -0.2250
-4.3821 FORK -0.2250
-4.3821 FORM -0.2250
-4.3821 FORMAL -0.2250
-4.3821 FORMALLY -0.2250
-4.3821 FORMER -0.2250
-4.3821 FORMERLY -0.2250
-4.3821 FORMULA -0.2250
-4.3821 FORTIETH -0.2250
-4.3821 FORTUNE -0.2250
-4.3821 FORTY -0.2250
-3.6832 FORWARD -0.2244
-4.3821 FOUND -0.2250
-4.3821 FOUNDATION -0.2250
-4.3821 FOUR -0.2250
-4.3821 FOURTEEN -0.2250
-4.3821 FOURTEENTH -0.2250
-4.3821 FOURTH -0.2250
-4.3821 FRAME -0.2250
-4.3821 FREE -0.2250
-4.3821 FREEDOM -0.2250
-4.3821 FREELY -0.2250
-4.3821 FREEZE -0.2250
-4.3821 FREQUENT -0.2250
-4.3821 FREQUENTLY -0.2250
-4.3821 FRESH -0.2250
-4.3821 FRESHLY -0.2250
-4.3821 FRIDAY -0.2250
-4.3821 FRIDGE -0.2250
-4.3821 FRIEND -0.2250
-4.3821 FRIENDLY -0.2250
-4.3821 FRIENDSHIP -0.2250
-4.0811 FRIGHTEN -0.2250
-4.3821 FRIGHTENED -0.2250
-4.3821 FRIGHTENING -0.2250
-3.6040 FROM -0.2250
-4.3821 FRONT -0.2250
-4.3821 FROZEN -0.2250
-4.3821 FRUIT -0.2250
-4.3821 FRY -0.2250
-4.3821 FUEL -0.2250
-4.3821 FULL -0.2250
-4.3821 FULLY -0.2250
-4.3821 FUN -0.2250
-4.0811 FUNCTION -0.2249
-4.3821 FUND -0.2250
-4.3821 FUNDAMENTAL -0.2250
-4.3821 FUNERAL -0.2250
-4.3821 FUNNY -0.2250
-4.3821 FUR -0.2250
-4.3821 FURNITURE -0.2250
-4.3821 FURTHER -0.2250
-4.3821 FUTURE -0.2250
-4.3821 GAIN -0.2250
-4.3821 GALLON -0.2250
-4.3821 GAMBLE -0.2250
-4.3821 GAMBLING -0.2250
-4.3821 GAME -0.2250
-4.3821 GAP -0.2250
-4.3821 GARAGE -0.2250
-4.3821 GARBAGE -0.2250
-4.3821 GARDEN -0.2250
-4.3821 GAS -0.2250
-4.3821 GASOLINE -0.2250
-4.3821 GATE -0.2250
-4.3821 GATHER -0.2250
-4.3821 GEAR -0.2250
-4.3821 GENERAL -0.2250
-4.3821 GENERALLY -0.2250
-4.3821 GENERATE -0.2250
-4.3821 GENERATION -0.2250
-4.3821 GENEROUS -0.2250
-4.3821 GENEROUSLY -0.2250
-4.3821 GENTLE -0.2250
-4.3821 GENTLEMAN -0.2250
-4.3821 GENTLY -0.2250
-4.3821 GENUINE -0.2250
-4.3821 GENUINELY -0.2250
-4.3821 GEOGRAPHY -0.2250
-3.1780 GET -0.2184
-4.3821 GIANT -0.2250
-4.3821 GIFT -0.2250
-4.3821 GIRL -0.2250
-4.3821 GIRLFRIEND -0.2250
-3.5370 GIVE -0.2202
-4.3821 GLAD -0.2250
-4.3821 GLASS -0.2250
-4.3821 GLOBAL -0.2250
-4.3821 GLOVE -0.2250
-4.3821 GLUE -0.2250
-3.0599 GO -0.2172
-4.3821 GOAL -0.2250
-4.3821 GOD -0.2250
-4.3821 GOLD -0.2250
-4.3821 GOOD -0.2250
-4.3821 GOODBYE -0.2250
-4.3821 GOODS -0.2250
-4.3821 GOVERN -0.2250
-4.3821 GOVERNMENT -0.2250
-4.3821 GOVERNOR -0.2250
-4.3821 GRAB -0.2250
-4.3821 GRADE -0.2250
-4.3821 GRADUAL -0.2250
-4.3821 GRADUALLY -0.2250
-4.3821 GRAIN -0.2250
-4.3821 GRAM -0.2250
-4.3821 GRAMMAR -0.2250
-4.3821 GRAND -0.2250
-4.3821 GRANDCHILD -0.2250
-4.3821 GRANDDAUGHTER -0.2250
-4.3821 GRANDFATHER -0.2250
-4.3821 GRANDMOTHER -0.2250
-4.3821 GRANDPARENT -0.2250
-4.3821 GRANDSON -0.2250
-4.3821 GRANT -0.2250
-4.3821 GRASS -0.2250
-4.3821 GRATEFUL -0.2250
-4.3821 GRAVE -0.2250
-4.3821 GRAVELY -0.2250
-4.3821 GREAT -0.2250
-4.3821 GREATLY -0.2250
-4.3821 GREEN -0.2250
-4.3821 GREY -0.2250
-4.3821 GROCERY -0.2250
-4.3821 GROUND -0.2250
-4.3821 GROUP -0.2250
-4.0811 GROW -0.2234
-4.3821 GROWTH -0.2250
-4.3821 GUARANTEE -0.2250
-4.3821 GUARD -0.2250
-4.3821 GUESS -0.2250
-4.3821 GUEST -0.2250
-4.3821 GUIDE -0.2250
-4.3821 GUILTY -0.2250
-4.3821 GUN -0.2250
-4.3821 GUY -0.2250
-4.3821 HABIT -0.2250
-4.3821 HAIR -0.2250
-4.3821 HAIRDRESSER -0.2250
-4.3821 HALF -0.2250
-4.3821 HALL -0.2250
-4.3821 HAMMER -0.2250
-3.5370 HAND -0.2217
-4.3821 HANDLE -0.2250
-3.4790 HANG -0.2225
-4.0811 HAPPEN -0.2244
-4.3821 HAPPILY -0.2250
-4.3821 HAPPINESS -0.2250
-4.3821 HAPPY -0.2250
-4.3821 HARD -0.2250
-4.3821 HARDLY -0.2250
-4.3821 HARM -0.2250
-4.3821 HARMFUL -0.2250
-4.3821 HARMLESS -0.2250
-4.3821 HAT -0.2250
-4.3821 HATE -0.2250
-4.3821 HATRED -0.2250
-3.7801 HAVE -0.2232
-4.3821 HE -0.2250
-4.3821 HEAD -0.2250
-4.3821 HEADACHE -0.2250
-4.3821 HEAL -0.2250
-4.3821 HEALTH -0.2250
-4.3821 HEALTHY -0.2250
-3.9050 HEAR -0.2246
-4.3821 HEARING -0.2250
-4.3821 HEART -0.2250
-4.0811 HEAT -0.2234
-4.3821 HEATING -0.2250
-4.3821 HEAVEN -0.2250
-4.3821 HEAVILY -0.2250
-4.3821 HEAVY -0.2250
-4.3821 HEEL -0.2250
-4.3821 HEIGHT -0.2250
-4.3821 HELL -0.2250
-4.3821 HELLO -0.2250
-4.0811 HELP -0.2237
-4.3821 HELPFUL -0.2250
-4.3821 HENCE -0.2250
-4.3821 HER -0.2250
-4.3821 HERE -0.2250
-4.3821 HERO -0.2250
-4.3821 HERS -0.2250
-4.3821 HERSELF -0.2250
-4.3821 HESITATE -0.2250
-4.3821 HI -0.2250
-4.3821 HIDE -0.2250
-4.3821 HIGH -0.2250
-4.3821 HIGHLIGHT -0.2250
-4.3821 HIGHLY -0.2250
-4.3821 HIGHWAY -0.2250
-4.3821 HILL -0.2250
-4.3821 HIM -0.2250
-4.3821 HIMSELF -0.2250
-4.3821 HIP -0.2250
-4.0811 HIRE -0.2237
-4.3821 HIS -0.2250
-4.3821 HISTORICAL -0.2250
-4.3821 HISTORY -0.2250
-4.3821 HIT -0.2250
-4.3821 HOBBY -0.2250
-3.6040 HOLD -0.2209
-4.3821 HOLE -0.2250
-4.3821 HOLIDAY -0.2250
-4.3821 HOLLOW -0.2250
-4.3821 HOLY -0.2250
-4.3821 HOME -0.2250
-4.3821 HOMEWORK -0.2250
-4.3821 HONEST -0.2250
-4.3821 HONESTLY -0.2250
-4.3821 HONOUR -0.2250
-4.3821 HOOK -0.2250
-4.3821 HOPE -0.2250
-4.3821 HORIZONTAL -0.2250
-4.3821 HORN -0.2250
-4.3821 HORROR -0.2250
-4.3821 HORSE -0.2250
-4.3821 HOSPITAL -0.2250
-4.3821 HOST -0.2250
-4.3821 HOT -0.2250
-4.3821 HOTEL -0.2250
-4.3821 HOUR -0.2250
-4.3821 HOUSE -0.2250
-4.3821 HOUSEHOLD -0.2250
-4.3821 HOUSING -0.2250
-4.3821 HOW -0.2250
-4.3821 HOWEVER -0.2250
-4.3821 HUGE -0.2250
-4.3821 HUMAN -0.2250
-4.3821 HUMOROUS -0.2250
-4.3821 HUMOUR -0.2250
-4.3821 HUNDRED -0.2250
-4.3821 HUNDREDTH -0.2250
-4.3821 HUNGRY -0.2250
-4.3821 HUNT -0.2250
-4.3821 HUNTING -0.2250
-4.0811 HURRY -0.2234
-4.3821 HURT -0.2250
-4.3821 HUSBAND -0.2250
-4.3821 I -0.2250
-4.3821 I.E. -0.2250
-4.0811 ICE -0.2250
-4.3821 IDEA -0.2250
-4.3821 IDEAL -0.2250
-4.0811 IDENTIFY -0.2246
-4.3821 IDENTITY -0.2250
-4.3821 IF -0.2250
-4.3821 IGNORE -0.2250
-4.3821 ILL -0.2250
-4.3821 ILLEGAL -0.2250
-4.3821 ILLEGALLY -0.2250
-4.3821 ILLNESS -0.2250
-4.3821 ILLUSTRATE -0.2250
-4.3821 IMAGE -0.2250
-4.3821 IMAGINARY -0.2250
-4.3821 IMAGINATION -0.2250
-4.3821 IMAGINE -0.2250
-4.3821 IMMEDIATE -0.2250
-4.3821 IMMEDIATELY -0.2250
-4.3821 IMMORAL -0.2250
-4.3821 IMPACT -0.2250
-4.3821 IMPATIENT -0.2250
-4.3821 IMPLICATION -0.2250
-4.3821 IMPLY -0.2250
-4.0811 IMPORT -0.2250
-4.3821 IMPORTANCE -0.2250
-4.3821 IMPORTANT -0.2250
-4.3821 IMPORTANTLY -0.2250
-4.3821 IMPOSE -0.2250
-4.3821 IMPOSSIBLE -0.2250
-4.3821 IMPRESS -0.2250
-4.3821 IMPRESSED -0.2250
-4.3821 IMPRESSION -0.2250
-4.3821 IMPRESSIVE -0.2250
-4.3821 IMPROVE -0.2250
-4.3821 IMPROVEMENT -0.2250
-3.0599 IN -0.2250
-4.3821 INABILITY -0.2250
-4.3821 INCH -0.2250
-4.3821 INCIDENT -0.2250
-4.3821 INCLUDE -0.2250
-4.3821 INCLUDING -0.2250
-4.3821 INCOME -0.2250
-4.3821 INCREASE -0.2250
-4.3821 INCREASINGLY -0.2250
-4.3821 INDEED -0.2250
-4.3821 INDEPENDENCE -0.2250
-4.3821 INDEPENDENT -0.2250
-4.3821 INDEPENDENTLY -0.2250
-4.3821 INDEX -0.2250
-4.3821 INDICATE -0.2250
-4.3821 INDICATION -0.2250
-4.3821 INDIRECT -0.2250
-4.3821 INDIRECTLY -0.2250
-4.3821 INDIVIDUAL -0.2250
-4.3821 INDOOR -0.2250
-4.3821 INDOORS -0.2250
-4.3821 INDUSTRIAL -0.2250
-4.3821 INDUSTRY -0.2250
-4.3821 INEVITABLE -0.2250
-4.3821 INEVITABLY -0.2250
-4.3821 INFECT -0.2250
-4.3821 INFECTED -0.2250
-4.3821 INFECTION -0.2250
-4.3821 INFECTIOUS -0.2250
-4.3821 INFLUENCE -0.2250
-4.3821 INFORM -0.2250
-4.3821 INFORMAL -0.2250
-4.3821 INFORMATION -0.2250
-4.3821 INGREDIENT -0.2250
-4.3821 INITIAL -0.2250
-4.3821 INITIALLY -0.2250
-4.3821 INITIATIVE -0.2250
-4.3821 INJURE -0.2250
-4.3821 INJURED -0.2250
-4.3821 INJURY -0.2250
-4.3821 INK -0.2250
-4.3821 INNER -0.2250
-4.3821 INNOCENT -0.2250
-4.3821 INSECT -0.2250
-4.3821 INSERT -0.2250
-4.3821 INSIDE -0.2250
-3.9050 INSIST -0.2243
-4.3821 INSTALL -0.2250
-4.3821 INSTANCE -0.2250
-4.0811 INSTEAD -0.2248
-4.3821 INSTITUTE -0.2250
-4.3821 INSTITUTION -0.2250
-4.3821 INSTRUCTION -0.2250
-4.3821 INSTRUMENT -0.2250
-4.3821 INSULT -0.2250
-4.3821 INSULTING -0.2250
-4.3821 INSURANCE -0.2250
-4.3821 INTELLIGENCE -0.2250
-4.3821 INTELLIGENT -0.2250
-4.3821 INTEND -0.2250
-4.3821 INTENDED -0.2250
-4.3821 INTENTION -0.2250
-4.3821 INTEREST -0.2250
-4.3821 INTERESTED -0.2250
-4.3821 INTERESTING -0.2250
-4.3821 INTERIOR -0.2250
-4.3821 INTERNAL -0.2250
-4.3821 INTERNATIONAL -0.2250
-4.3821 INTERNET -0.2250
-4.3821 INTERPRET -0.2250
-4.3821 INTERPRETATION -0.2250
-4.3821 INTERRUPT -0.2250
-4.3821 INTERRUPTION -0.2250
-4.3821 INTERVAL -0.2250
-4.3821 INTERVIEW -0.2250
-3.4279 INTO -0.2250
-4.3821 INTRODUCE -0.2250
-4.3821 INTRODUCTION -0.2250
-4.3821 INVENT -0.2250
-4.3821 INVENTION -0.2250
-4.3821 INVEST -0.2250
-4.3821 INVESTIGATE -0.2250
-4.3821 INVESTIGATION -0.2250
-4.3821 INVESTMENT -0.2250
-4.3821 INVITATION -0.2250
-4.3821 INVITE -0.2250
-4.3821 INVOLVE -0.2250
-4.3821 INVOLVED -0.2250
-4.3821 INVOLVEMENT -0.2250
-4.3821 IRON -0.2250
-4.3821 IRRITATE -0.2250
-4.3821 IRRITATED -0.2250
-4.3821 IRRITATING -0.2250
-4.3821 ISLAND -0.2250
-4.3821 ISSUE -0.2250
-4.3821 IT -0.2250
-4.3821 ITEM -0.2250
-4.3821 ITS -0.2250
-4.3821 ITSELF -0.2250
-4.3821 JACKET -0.2250
-4.3821 JAM -0.2250
-4.3821 JANUARY -0.2250
-4.3821 JEALOUS -0.2250
-4.3821 JEANS -0.2250
-4.3821 JELLY -0.2250
-4.3821 JEWELLERY -0.2250
-4.3821 JOB -0.2250
-4.0811 JOIN -0.2246
-4.3821 JOINT -0.2250
-4.3821 JOINTLY -0.2250
-4.3821 JOKE -0.2250
-4.3821 JOURNALIST -0.2250
-4.3821 JOURNEY -0.2250
-4.3821 JOY -0.2250
-4.3821 JUDGE -0.2250
-4.3821 JUDGEMENT -0.2250
-4.3821 JUICE -0.2250
-4.3821 JULY -0.2250
-4.3821 JUMP -0.2250
-4.3821 JUNE -0.2250
-4.3821 JUNIOR -0.2250
-4.3821 JUST -0.2250
-4.3821 JUSTICE -0.2250
-4.3821 JUSTIFIED -0.2250
-4.3821 JUSTIFY -0.2250
-4.3821 KEEN -0.2250
-3.6832 KEEP -0.2221
-4.3821 KEY -0.2250
-4.3821 KEYBOARD -0.2250
-4.3821 KICK -0.2250
-4.3821 KID -0.2250
-4.3821 KILL -0.2250
-4.3821 KILLING -0.2250
-4.3821 KILOGRAM -0.2250
-4.3821 KILOMETRE -0.2250
-4.3821 KIND -0.2250
-4.3821 KINDLY -0.2250
-4.3821 KINDNESS -0.2250
-4.3821 KING -0.2250
-4.3821 KISS -0.2250
-4.3821 KITCHEN -0.2250
-4.3821 KNEE -0.2250
-4.3821 KNIFE -0.2250
-4.3821 KNIT -0.2250
-4.3821 KNITTED -0.2250
-4.3821 KNITTING -0.2250
-3.9050 KNOCK -0.2231
-4.3821 KNOT -0.2250
-4.3821 KNOW -0.2250
-4.3821 KNOWLEDGE -0.2250
-4.3821 KNOWN -0.2250
-4.3821 LAB -0.2250
-4.3821 LABEL -0.2250
-4.3821 LABORATORY -0.2250
-4.3821 LABOUR -0.2250
-4.3821 LACK -0.2250
-4.3821 LACKING -0.2250
-4.3821 LADY -0.2250
-4.3821 LAKE -0.2250
-4.3821 LAMP -0.2250
-4.3821 LAND -0.2250
-4.3821 LANDSCAPE -0.2250
-4.3821 LANE -0.2250
-4.3821 LANGUAGE -0.2250
-4.3821 LARGE -0.2250
-4.3821 LARGELY -0.2250
-4.3821 LAST -0.2250
-4.3821 LATE -0.2250
-4.3821 LATER -0.2250
-4.3821 LATEST -0.2250
-4.3821 LATTER -0.2250
-4.0811 LAUGH -0.2249
-4.3821 LAUNCH -0.2250
-4.3821 LAW -0.2250
-4.3821 LAWYER -0.2250
-4.3821 LAY -0.2250
-4.3821 LAYER -0.2250
-4.3821 LAZY -0.2250
-4.3821 LEAD -0.2250
-4.3821 LEADER -0.2250
-4.3821 LEADING -0.2250
-4.3821 LEAF -0.2250
-4.3821 LEAGUE -0.2250
-4.3821 LEAN -0.2250
-4.3821 LEARN -0.2250
-4.3821 LEAST -0.2250
-4.3821 LEATHER -0.2250
-4.0811 LEAVE -0.2237
-4.3821 LECTURE -0.2250
-4.0811 LEFT -0.2247
-4.3821 LEG -0.2250
-4.3821 LEGAL -0.2250
-4.3821 LEGALLY -0.2250
-4.3821 LEMON -0.2250
-4.3821 LEND -0.2250
-4.3821 LENGTH -0.2250
-4.3821 LESS -0.2250
-4.3821 LESSON -0.2250
-3.9050 LET -0.2238
-4.3821 LETTER -0.2250
-4.3821 LEVEL -0.2250
-4.3821 LIBRARY -0.2250
-4.3821 LICENCE -0.2250
-4.3821 LICENSE -0.2250
-4.3821 LID -0.2250
-3.7801 LIE -0.2244
-4.3821 LIFE -0.2250
-4.3821 LIFT -0.2250
-4.3821 LIGHT -0.2250
-4.3821 LIGHTLY -0.2250
-4.3821 LIKE -0.2250
-4.3821 LIKELY -0.2250
-4.0811 LIMIT -0.2244
-4.3821 LIMITED -0.2250
-4.3821 LINE -0.2250
-4.3821 LINK -0.2250
-4.3821 LIP -0.2250
-4.3821 LIQUID -0.2250
-4.3821 LIST -0.2250
-4.3821 LISTEN -0.2250
-4.3821 LITERATURE -0.2250
-4.3821 LITRE -0.2250
-4.3821 LITTLE -0.2250
-3.6832 LIVE -0.2240
-4.3821 LIVELY -0.2250
-4.3821 LIVING -0.2250
-4.3821 LOAD -0.2250
-4.3821 LOAN -0.2250
-4.3821 LOCAL -0.2250
-4.3821 LOCALLY -0.2250
-4.3821 LOCATE -0.2250
-4.3821 LOCATED -0.2250
-4.3821 LOCATION -0.2250
-4.0811 LOCK -0.2234
-4.3821 LOGIC -0.2250
-4.3821 LOGICAL -0.2250
-4.3821 LONELY -0.2250
-4.3821 LONG -0.2250
-3.2360 LOOK -0.2199
-4.3821 LOOSE -0.2250
-4.3821 LOOSELY -0.2250
-4.3821 LORD -0.2250
-4.3821 LORRY -0.2250
-4.3821 LOSE -0.2250
-4.3821 LOSS -0.2250
-4.3821 LOST -0.2250
-4.3821 LOT -0.2250
-4.3821 LOUD -0.2250
-4.3821 LOUDLY -0.2250
-4.3821 LOVE -0.2250
-4.3821 LOVELY -0.2250
-4.3821 LOVER -0.2250
-4.3821 LOW -0.2250
-4.3821 LOYAL -0.2250
-4.3821 LUCK -0.2250
-4.3821 LUCKY -0.2250
-4.3821 LUGGAGE -0.2250
-4.3821 LUMP -0.2250
-4.3821 LUNCH -0.2250
-4.3821 LUNG -0.2250
-4.3821 MACHINE -0.2250
-4.3821 MACHINERY -0.2250
-4.3821 MAD -0.2250
-4.3821 MAGAZINE -0.2250
-4.3821 MAGIC -0.2250
-4.3821 MAIL -0.2250
-4.3821 MAIN -0.2250
-4.3821 MAINLY -0.2250
-4.3821 MAINTAIN -0.2250
-4.3821 MAJOR -0.2250
-4.3821 MAJORITY -0.2250
-3.7801 MAKE -0.2232
-4.3821 MAKE-UP -0.2250
-4.3821 MALE -0.2250
-4.3821 MALL -0.2250
-4.3821 MAN -0.2250
-4.3821 MANAGE -0.2250
-4.3821 MANAGEMENT -0.2250
-4.3821 MANAGER -0.2250
-4.3821 MANNER -0.2250
-4.3821 MANUFACTURE -0.2250
-4.3821 MANUFACTURER -0.2250
-4.3821 MANUFACTURING -0.2250
-4.3821 MANY -0.2250
-4.3821 MAP -0.2250
-4.0811 MARCH -0.2250
-4.3821 MARK -0.2250
-4.3821 MARKET -0.2250
-4.3821 MARKETING -0.2250
-4.3821 MARRIAGE -0.2250
-4.3821 MARRIED -0.2250
-4.3821 MARRY -0.2250
-4.3821 MASS -0.2250
-4.3821 MASSIVE -0.2250
-4.3821 MASTER -0.2250
-4.0811 MATCH -0.2234
-4.3821 MATCHING -0.2250
-4.3821 MATE -0.2250
-4.3821 MATERIAL -0.2250
-4.3821 MATHEMATICS -0.2250
-4.3821 MATTER -0.2250
-4.3821 MAXIMUM -0.2250
-4.0811 MAY -0.2250
-4.3821 MAYBE -0.2250
-4.3821 MAYOR -0.2250
-4.3821 ME -0.2250
-4.3821 MEAL -0.2250
-4.3821 MEAN -0.2250
-4.3821 MEANING -0.2250
-4.3821 MEANS -0.2250
-4.3821 MEANWHILE -0.2250
-4.3821 MEASURE -0.2250
-4.3821 MEASUREMENT -0.2250
-4.3821 MEAT -0.2250
-4.3821 MEDIA -0.2250
-4.3821 MEDICAL -0.2250
-4.3821 MEDICINE -0.2250
-4.3821 MEDIUM -0.2250
-3.9050 MEET -0.2231
-4.3821 MEETING -0.2250
-4.3821 MELT -0.2250
-4.3821 MEMBER -0.2250
-4.3821 MEMBERSHIP -0.2250
-4.3821 MEMORY -0.2250
-4.3821 MENTAL -0.2250
-4.3821 MENTALLY -0.2250
-4.3821 MENTION -0.2250
-4.3821 MENU -0.2250
-4.3821 MERE -0.2250
-4.3821 MERELY -0.2250
-4.3821 MESS -0.2250
-4.3821 MESSAGE -0.2250
-4.3821 METAL -0.2250
-4.3821 METHOD -0.2250
-4.3821 METRE -0.2250
-4.3821 MID- -0.2250
-4.3821 MIDDAY -0.2250
-4.3821 MIDDLE -0.2250
-4.3821 MIDNIGHT -0.2250
-4.3821 MIGHT -0.2250
-4.3821 MILD -0.2250
-4.3821 MILE -0.2250
-4.3821 MILITARY -0.2250
-4.3821 MILK -0.2250
-4.3821 MILLIGRAM -0.2250
-4.3821 MILLIMETRE -0.2250
-4.3821 MILLION -0.2250
-4.3821 MILLIONTH -0.2250
-4.3821 MIND -0.2250
-4.3821 MINE -0.2250
-4.3821 MINERAL -0.2250
-4.3821 MINIMUM -0.2250
-4.0811 MINISTER -0.2250
-4.3821 MINISTRY -0.2250
-4.3821 MINOR -0.2250
-4.3821 MINORITY -0.2250
-4.3821 MINUTE -0.2250
-4.3821 MIRROR -0.2250
-4.0811 MISS -0.2237
-4.3821 MISSING -0.2250
-4.0811 MISTAKE -0.2248
-4.3821 MISTAKEN -0.2250
-4.0811 MIX -0.2234
-4.3821 MIXED -0.2250
-4.3821 MIXTURE -0.2250
-4.0811 MOBILE -0.2249
-4.3821 MODEL -0.2250
-4.3821 MODERN -0.2250
-4.3821 MOM -0.2250
-4.3821 MOMENT -0.2250
-4.3821 MONDAY -0.2250
-4.3821 MONEY -0.2250
-4.3821 MONITOR -0.2250
-4.3821 MONTH -0.2250
-4.3821 MOOD -0.2250
-4.3821 MOON -0.2250
-4.3821 MORAL -0.2250
-4.3821 MORALLY -0.2250
-4.3821 MORE -0.2250
-4.3821 MOREOVER -0.2250
-4.3821 MORNING -0.2250
-4.3821 MOST -0.2250
-4.3821 MOSTLY -0.2250
-4.3821 MOTHER -0.2250
-4.3821 MOTION -0.2250
-4.3821 MOTOR -0.2250
-4.3821 MOTORBIKE -0.2250
-4.3821 MOTORCYCLE -0.2250
-4.3821 MOUNT -0.2250
-4.3821 MOUNTAIN -0.2250
-4.3821 MOUSE -0.2250
-4.3821 MOUTH -0.2250
-3.7801 MOVE -0.2229
-4.3821 MOVEMENT -0.2250
-4.0811 MOVIE -0.2250
-4.3821 MOVING -0.2250
-4.3821 MR -0.2250
-4.3821 MRS -0.2250
-4.3821 MS -0.2250
-4.3821 MUCH -0.2250
-4.3821 MUD -0.2250
-4.3821 MULTIPLY -0.2250
-4.3821 MUM -0.2250
-4.3821 MURDER -0.2250
-4.3821 MUSCLE -0.2250
-4.3821 MUSEUM -0.2250
-4.3821 MUSIC -0.2250
-4.3821 MUSICAL -0.2250
-4.3821 MUSICIAN -0.2250
-4.3821 MUST -0.2250
-4.3821 MY -0.2250
-4.3821 MYSELF -0.2250
-4.3821 MYSTERIOUS -0.2250
-4.3821 MYSTERY -0.2250
-4.3821 NAIL -0.2250
-4.3821 NAKED -0.2250
-4.3821 NAME -0.2250
-4.3821 NARROW -0.2250
-4.3821 NATION -0.2250
-4.3821 NATIONAL -0.2250
-4.3821 NATURAL -0.2250
-4.3821 NATURALLY -0.2250
-4.3821 NATURE -0.2250
-4.3821 NAVY -0.2250
-4.3821 NEAR -0.2250
-4.3821 NEARBY -0.2250
-4.3821 NEARLY -0.2250
-4.3821 NEAT -0.2250
-4.3821 NEATLY -0.2250
-4.3821 NECESSARILY -0.2250
-4.3821 NECESSARY -0.2250
-4.3821 NECK -0.2250
-4.3821 NEED -0.2250
-4.3821 NEEDLE -0.2250
-4.3821 NEGATIVE -0.2250
-4.3821 NEIGHBOUR -0.2250
-4.3821 NEIGHBOURHOOD -0.2250
-4.3821 NEITHER -0.2250
-4.3821 NEPHEW -0.2250
-4.3821 NERVE -0.2250
-4.3821 NERVOUS -0.2250
-4.3821 NERVOUSLY -0.2250
-4.3821 NEST -0.2250
-4.3821 NET -0.2250
-4.3821 NETWORK -0.2250
-4.3821 NEVER -0.2250
-4.3821 NEVERTHELESS -0.2250
-4.3821 NEW -0.2250
-4.3821 NEWLY -0.2250
-4.3821 NEWS -0.2250
-4.3821 NEWSPAPER -0.2250
-4.0811 NEXT -0.2244
-4.3821 NICE -0.2250
-4.3821 NICELY -0.2250
-4.3821 NIECE -0.2250
-4.3821 NIGHT -0.2250
-4.3821 NINE -0.2250
-4.3821 NINETEEN -0.2250
-4.3821 NINETEENTH -0.2250
-4.3821 NINETIETH -0.2250
-4.3821 NINETY -0.2250
-4.3821 NINTH -0.2250
-4.0811 NO -0.2249
-4.3821 NOBODY -0.2250
-4.3821 NOISE -0.2250
-4.3821 NOISILY -0.2250
-4.3821 NOISY -0.2250
-4.3821 NON- -0.2250
-4.3821 NONE -0.2250
-4.3821 NONSENSE -0.2250
-4.3821 NOR -0.2250
-4.3821 NORMAL -0.2250
-4.3821 NORMALLY -0.2250
-4.3821 NORTH -0.2250
-4.3821 NORTHERN -0.2250
-4.3821 NOSE -0.2250
-4.3821 NOT -0.2250
-4.0811 NOTE -0.2244
-4.3821 NOTHING -0.2250
-4.3821 NOTICE -0.2250
-4.3821 NOTICEABLE -0.2250
-4.3821 NOVEL -0.2250
-4.3821 NOVEMBER -0.2250
-4.3821 NOW -0.2250
-4.3821 NOWHERE -0.2250
-4.3821 NUCLEAR -0.2250
-4.3821 NUMBER -0.2250
-4.3821 NURSE -0.2250
-4.3821 NUT -0.2250
-4.3821 OBEY -0.2250
-4.0811 OBJECT -0.2250
-4.3821 OBJECTIVE -0.2250
-4.3821 OBSERVATION -0.2250
-4.3821 OBSERVE -0.2250
-4.3821 OBTAIN -0.2250
-4.3821 OBVIOUS -0.2250
-4.3821 OBVIOUSLY -0.2250
-4.3821 OCCASION -0.2250
-4.3821 OCCASIONALLY -0.2250
-4.3821 OCCUPIED -0.2250
-4.3821 OCCUPY -0.2250
-4.0811 OCCUR -0.2244
-4.3821 OCEAN -0.2250
-4.3821 OCTOBER -0.2250
-4.3821 ODD -0.2250
-4.3821 ODDLY -0.2250
-3.3029 OF -0.2249
-2.9197 OFF -0.2250
-4.3821 OFFENCE -0.2250
-4.3821 OFFEND -0.2250
-4.3821 OFFENSE -0.2250
-4.3821 OFFENSIVE -0.2250
-4.3821 OFFER -0.2250
-4.0811 OFFICE -0.2250
-4.3821 OFFICER -0.2250
-4.3821 OFFICIAL -0.2250
-4.3821 OFFICIALLY -0.2250
-4.3821 OFTEN -0.2250
-4.3821 OH -0.2250
-4.3821 OIL -0.2250
-4.3821 OK -0.2250
-4.3821 OLD -0.2250
-4.3821 OLD-FASHIONED -0.2250
-2.8636 ON -0.2239
-4.3821 ONCE -0.2250
-3.9050 ONE -0.2250
-4.3821 ONION -0.2250
-4.3821 ONLINE -0.2250
-4.3821 ONLY -0.2250
-4.3821 ONTO -0.2250
-4.0811 OPEN -0.2234
-4.3821 OPENING -0.2250
-4.3821 OPENLY -0.2250
-4.3821 OPERATE -0.2250
-4.3821 OPERATION -0.2250
-4.3821 OPINION -0.2250
-4.3821 OPPONENT -0.2250
-4.3821 OPPORTUNITY -0.2250
-4.3821 OPPOSE -0.2250
-4.3821 OPPOSED -0.2250
-4.3821 OPPOSING -0.2250
-4.3821 OPPOSITE -0.2250
-4.3821 OPPOSITION -0.2250
-4.3821 OPTION -0.2250
-4.3821 OR -0.2250
-4.3821 ORANGE -0.2250
-4.3821 ORDER -0.2250
-4.3821 ORDINARY -0.2250
-4.3821 ORGAN -0.2250
-4.3821 ORGANIZATION -0.2250
-4.3821 ORGANIZE -0.2250
-4.3821 ORGANIZED -0.2250
-4.3821 ORIGIN -0.2250
-4.3821 ORIGINAL -0.2250
-4.3821 ORIGINALLY -0.2250
-4.0811 OTHER -0.2250
-4.3821 OTHERWISE -0.2250
-4.3821 OUGHT -0.3005
-4.3821 OUR -0.2250
-4.3821 OURS -0.2250
-4.3821 OURSELVES -0.2250
-2.5828 OUT -0.2241
-4.3821 OUTDOOR -0.2250
-4.3821 OUTDOORS -0.2250
-4.3821 OUTER -0.2250
-4.3821 OUTLINE -0.2250
-4.3821 OUTPUT -0.2250
-4.0811 OUTSIDE -0.2250
-4.3821 OUTSTANDING -0.2250
-4.3821 OVEN -0.2250
-3.2360 OVER -0.2250
-4.0811 OVERALL -0.2250
-4.3821 OVERCOME -0.2250
-4.3821 OWE -0.2250
-4.0811 OWN -0.2234
-4.3821 OWNER -0.2250
-4.3821 OCLOCK -0.2250
-4.3821 P.M. -0.2250
-4.3821 PACE -0.2250
-4.0811 PACK -0.2234
-4.3821 PACKAGE -0.2250
-4.3821 PACKAGING -0.2250
-4.3821 PACKET -0.2250
-4.3821 PAGE -0.2250
-4.3821 PAIN -0.2250
-4.3821 PAINFUL -0.2250
-4.3821 PAINT -0.2250
-4.3821 PAINTER -0.2250
-4.3821 PAINTING -0.2250
-4.3821 PAIR -0.2250
-4.3821 PALACE -0.2250
-4.3821 PALE -0.2250
-4.3821 PAN -0.2250
-4.3821 PANEL -0.2250
-4.3821 PANTS -0.2250
-4.3821 PAPER -0.2250
-4.3821 PARALLEL -0.2250
-4.3821 PARENT -0.2250
-4.3821 PARK -0.2250
-4.3821 PARLIAMENT -0.2250
-4.3821 PART -0.2250
-4.3821 PARTICULAR -0.2250
-4.3821 PARTICULARLY -0.2250
-4.3821 PARTLY -0.2250
-4.3821 PARTNER -0.2250
-4.3821 PARTNERSHIP -0.2250
-4.3821 PARTY -0.2250
-3.5370 PASS -0.2220
-4.3821 PASSAGE -0.2250
-4.3821 PASSENGER -0.2250
-4.3821 PASSING -0.2250
-4.3821 PASSPORT -0.2250
-4.3821 PAST -0.2250
-4.3821 PATH -0.2250
-4.3821 PATIENCE -0.2250
-4.3821 PATIENT -0.2250
-4.3821 PATTERN -0.2250
-4.3821 PAUSE -0.2250
-3.7801 PAY -0.2216
-4.3821 PAYMENT -0.2250
-4.3821 PEACE -0.2250
-4.3821 PEACEFUL -0.2250
-4.3821 PEAK -0.2250
-4.3821 PEN -0.2250
-4.3821 PENCIL -0.2250
-4.3821 PENNY -0.2250
-4.3821 PENSION -0.2250
-4.3821 PEOPLE -0.2250
-4.3821 PEPPER -0.2250
-4.0811 PER -0.2250
-4.3821 PERFECT -0.2250
-4.3821 PERFECTLY -0.2250
-4.3821 PERFORM -0.2250
-4.3821 PERFORMANCE -0.2250
-4.3821 PERFORMER -0.2250
-4.3821 PERHAPS -0.2250
-4.3821 PERIOD -0.2250
-4.3821 PERMANENT -0.2250
-4.3821 PERMANENTLY -0.2250
-4.3821 PERMISSION -0.2250
-4.3821 PERMIT -0.2250
-4.3821 PERSON -0.2250
-4.3821 PERSONAL -0.2250
-4.3821 PERSONALITY -0.2250
-4.3821 PERSONALLY -0.2250
-4.3821 PERSUADE -0.2250
-4.3821 PET -0.2250
-4.3821 PETROL -0.2250
-4.3821 PHASE -0.2250
-4.3821 PHILOSOPHY -0.2250
-3.9050 PHONE -0.2250
-4.3821 PHOTO -0.2250
-4.3821 PHOTOCOPY -0.2250
-4.3821 PHOTOGRAPH -0.2250
-4.3821 PHOTOGRAPHER -0.2250
-4.3821 PHOTOGRAPHY -0.2250
-4.3821 PHRASE -0.2250
-4.3821 PHYSICAL -0.2250
-4.3821 PHYSICALLY -0.2250
-4.3821 PHYSICS -0.2250
-4.3821 PIANO -0.2250
-4.0811 PICK -0.2234
-4.3821 PICTURE -0.2250
-4.3821 PIECE -0.2250
-4.3821 PIG -0.2250
-4.0811 PILE -0.2234
-4.3821 PILL -0.2250
-4.3821 PILOT -0.2250
-4.3821 PIN -0.2250
-4.3821 PINK -0.2250
-4.3821 PINT -0.2250
-4.3821 PIPE -0.2250
-4.3821 PITCH -0.2250
-4.3821 PITY -0.2250
-4.3821 PLACE -0.2250
-4.3821 PLAIN -0.2250
-4.3821 PLAN -0.2250
-4.3821 PLANE -0.2250
-4.3821 PLANET -0.2250
-4.3821 PLANNING -0.2250
-4.3821 PLANT -0.2250
-4.3821 PLASTIC -0.2250
-4.3821 PLATE -0.2250
-4.3821 PLATFORM -0.2250
-3.9050 PLAY -0.2245
-4.3821 PLAYER -0.2250
-4.3821 PLEASANT -0.2250
-4.3821 PLEASANTLY -0.2250
-4.3821 PLEASE -0.2250
-4.3821 PLEASED -0.2250
-4.3821 PLEASING -0.2250
-4.3821 PLEASURE -0.2250
-4.3821 PLENTY -0.2250
-4.3821 PLOT -0.2250
-4.0811 PLUG -0.2246
-4.3821 PLUS -0.2250
-4.3821 POCKET -0.2250
-4.3821 POEM -0.2250
-4.3821 POETRY -0.2250
-4.0811 POINT -0.2237
-4.3821 POINTED -0.2250
-4.3821 POISON -0.2250
-4.3821 POISONOUS -0.2250
-4.3821 POLE -0.2250
-4.3821 POLICE -0.2250
-4.3821 POLICY -0.2250
-4.3821 POLISH -0.2250
-4.3821 POLITE -0.2250
-4.3821 POLITELY -0.2250
-4.3821 POLITICAL -0.2250
-4.3821 POLITICALLY -0.2250
-4.3821 POLITICIAN -0.2250
-4.3821 POLITICS -0.2250
-4.3821 POLLUTION -0.2250
-4.0811 POOL -0.2250
-4.3821 POOR -0.2250
-4.3821 POP -0.2250
-4.3821 POPULAR -0.2250
-4.3821 POPULATION -0.2250
-4.3821 PORT -0.2250
-4.3821 POSE -0.2250
-4.3821 POSITION -0.2250
-4.3821 POSITIVE -0.2250
-4.3821 POSSESS -0.2250
-4.3821 POSSESSION -0.2250
-4.3821 POSSIBILITY -0.2250
-4.3821 POSSIBLE -0.2250
-4.3821 POSSIBLY -0.2250
-4.0811 POST -0.2250
-4.3821 POT -0.2250
-4.3821 POTATO -0.2250
-4.3821 POTENTIAL -0.2250
-4.3821 POTENTIALLY -0.2250
-4.3821 POUND -0.2250
-4.3821 POUR -0.2250
-4.3821 POWDER -0.2250
-4.3821 POWER -0.2250
-4.3821 POWERFUL -0.2250
-4.3821 PRACTICAL -0.2250
-4.3821 PRACTICALLY -0.2250
-4.3821 PRACTICE -0.2250
-4.3821 PRACTISE -0.2250
-4.3821 PRAISE -0.2250
-4.3821 PRAY -0.2250
-4.3821 PRAYER -0.2250
-4.3821 PRECISE -0.2250
-4.3821 PRECISELY -0.2250
-4.3821 PREDICT -0.2250
-4.3821 PREFER -0.2250
-4.3821 PREFERENCE -0.2250
-4.3821 PREGNANT -0.2250
-4.3821 PREMISES -0.2250
-4.3821 PREPARATION -0.2250
-4.3821 PREPARE -0.2250
-4.3821 PREPARED -0.2250
-4.3821 PRESENCE -0.2250
-4.0811 PRESENT -0.2250
-4.3821 PRESENTATION -0.2250
-4.3821 PRESERVE -0.2250
-4.3821 PRESIDENT -0.2250
-4.3821 PRESS -0.2250
-4.3821 PRESSURE -0.2250
-4.3821 PRESUMABLY -0.2250
-4.3821 PRETEND -0.2250
-4.3821 PRETTY -0.2250
-4.3821 PREVENT -0.2250
-4.3821 PREVIOUS -0.2250
-4.3821 PREVIOUSLY -0.2250
-4.3821 PRICE -0.2250
-4.3821 PRIDE -0.2250
-4.3821 PRIEST -0.2250
-4.3821 PRIMARILY -0.2250
-4.3821 PRIMARY -0.2250
-4.3821 PRIME -0.3010
-4.3821 PRINCE -0.2250
-4.3821 PRINCESS -0.2250
-4.3821 PRINCIPLE -0.2250
-4.0811 PRINT -0.2244
-4.3821 PRINTER -0.2250
-4.3821 PRINTING -0.2250
-4.3821 PRIOR -0.2250
-4.3821 PRIORITY -0.2250
-4.3821 PRISON -0.2250
-4.3821 PRISONER -0.2250
-4.3821 PRIVATE -0.2250
-4.3821 PRIVATELY -0.2250
-4.3821 PRIZE -0.2250
-4.3821 PROBABLE -0.2250
-4.3821 PROBABLY -0.2250
-4.3821 PROBLEM -0.2250
-4.3821 PROCEDURE -0.2250
-4.3821 PROCEED -0.2250
-4.3821 PROCESS -0.2250
-4.3821 PRODUCE -0.2250
-4.3821 PRODUCER -0.2250
-4.3821 PRODUCT -0.2250
-4.3821 PRODUCTION -0.2250
-4.3821 PROFESSION -0.2250
-4.3821 PROFESSIONAL -0.2250
-4.3821 PROFESSOR -0.2250
-4.3821 PROFIT -0.2250
-4.3821 PROGRAM -0.2250
-4.3821 PROGRAMME -0.2250
-4.0811 PROGRESS -0.2250
-4.0811 PROJECT -0.2250
-4.3821 PROMISE -0.2250
-4.3821 PROMOTE -0.2250
-4.3821 PROMOTION -0.2250
-4.3821 PROMPT -0.2250
-4.3821 PROMPTLY -0.2250
-4.3821 PRONOUNCE -0.2250
-4.3821 PRONUNCIATION -0.2250
-4.3821 PROOF -0.2250
-4.3821 PROPER -0.2250
-4.3821 PROPERLY -0.2250
-4.3821 PROPERTY -0.2250
-4.3821 PROPORTION -0.2250
-4.3821 PROPOSAL -0.2250
-4.3821 PROPOSE -0.2250
-4.3821 PROSPECT -0.2250
-4.3821 PROTECT -0.2250
-4.3821 PROTECTION -0.2250
-4.0811 PROTEST -0.2250
-4.3821 PROUD -0.2250
-4.3821 PROUDLY -0.2250
-4.3821 PROVE -0.2250
-4.3821 PROVIDE -0.2250
-4.3821 PROVIDED -0.2250
-4.3821 PROVIDING -0.2250
-4.3821 PUB -0.2250
-4.3821 PUBLIC -0.2250
-4.3821 PUBLICATION -0.2250
-4.3821 PUBLICITY -0.2250
-4.3821 PUBLICLY -0.2250
-4.3821 PUBLISH -0.2250
-4.3821 PUBLISHING -0.2250
-3.3821 PULL -0.2197
-4.3821 PUNCH -0.2250
-4.3821 PUNISH -0.2250
-4.3821 PUNISHMENT -0.2250
-4.3821 PUPIL -0.2250
-4.3821 PURCHASE -0.2250
-4.3821 PURE -0.2250
-4.3821 PURELY -0.2250
-4.3821 PURPLE -0.2250
-4.3821 PURPOSE -0.2250
-4.3821 PURSUE -0.2250
-3.9050 PUSH -0.2248
-3.2682 PUT -0.2185
-4.3821 QUALIFICATION -0.2250
-4.3821 QUALIFIED -0.2250
-4.3821 QUALIFY -0.2250
-4.3821 QUALITY -0.2250
-4.3821 QUANTITY -0.2250
-4.3821 QUARTER -0.2250
-4.3821 QUEEN -0.2250
-4.3821 QUESTION -0.2250
-4.3821 QUICK -0.2250
-4.3821 QUICKLY -0.2250
-4.3821 QUIET -0.2250
-4.3821 QUIETLY -0.2250
-4.3821 QUIT -0.2250
-4.3821 QUITE -0.2250
-4.3821 QUOTE -0.2250
-4.3821 RACE -0.2250
-4.3821 RACING -0.2250
-4.3821 RADIO -0.2250
-4.3821 RAIL -0.2250
-4.3821 RAILROAD -0.2250
-4.3821 RAILWAY -0.2250
-4.3821 RAIN -0.2250
-4.3821 RAISE -0.2250
-4.3821 RANGE -0.2250
-4.3821 RANK -0.2250
-4.3821 RAPID -0.2250
-4.3821 RAPIDLY -0.2250
-4.3821 RARE -0.2250
-4.3821 RARELY -0.2250
-4.3821 RATE -0.2250
-4.3821 RATHER -0.2250
-4.3821 RAW -0.2250
-4.3821 RE- -0.2250
-4.3821 REACH -0.2250
-4.3821 REACT -0.2250
-4.3821 REACTION -0.2250
-3.9050 READ -0.2234
-4.3821 READER -0.2250
-4.3821 READING -0.2250
-4.3821 READY -0.2250
-4.3821 REAL -0.2250
-4.3821 REALISTIC -0.2250
-4.3821 REALITY -0.2250
-4.3821 REALIZE -0.2250
-4.3821 REALLY -0.2250
-4.3821 REAR -0.2250
-4.3821 REASON -0.2250
-4.3821 REASONABLE -0.2250
-4.3821 REASONABLY -0.2250
-4.3821 RECALL -0.2250
-4.3821 RECEIPT -0.2250
-4.3821 RECEIVE -0.2250
-4.3821 RECENT -0.2250
-4.3821 RECENTLY -0.2250
-4.3821 RECEPTION -0.2250
-4.0811 RECKON -0.2243
-4.3821 RECOGNITION -0.2250
-4.3821 RECOGNIZE -0.2250
-4.3821 RECOMMEND -0.2250
-4.0811 RECORD -0.2250
-4.3821 RECORDING -0.2250
-4.3821 RECOVER -0.2250
-4.3821 RED -0.2250
-4.3821 REDUCE -0.2250
-4.3821 REDUCTION -0.2250
-4.0811 REFER -0.2244
-4.3821 REFERENCE -0.2250
-4.3821 REFLECT -0.2250
-4.3821 REFORM -0.2250
-4.3821 REFRIGERATOR -0.2250
-4.3821 REFUSAL -0.2250
-4.3821 REFUSE -0.2250
-4.3821 REGARD -0.2250
-4.3821 REGARDING -0.2250
-4.3821 REGION -0.2250
-4.3821 REGIONAL -0.2250
-4.3821 REGISTER -0.2250
-4.3821 REGRET -0.2250
-4.3821 REGULAR -0.2250
-4.3821 REGULARLY -0.2250
-4.3821 REGULATION -0.2250
-4.3821 REJECT -0.2250
-4.0811 RELATE -0.2244
-4.3821 RELATED -0.2250
-4.3821 RELATION -0.2250
-4.3821 RELATIONSHIP -0.2250
-4.3821 RELATIVE -0.2250
-4.3821 RELATIVELY -0.2250
-4.3821 RELAX -0.2250
-4.3821 RELAXED -0.2250
-4.3821 RELAXING -0.2250
-4.3821 RELEASE -0.2250
-4.3821 RELEVANT -0.2250
-4.3821 RELIEF -0.2250
-4.3821 RELIGION -0.2250
-4.3821 RELIGIOUS -0.2250
-4.0811 RELY -0.2243
-4.3821 REMAIN -0.2250
-4.3821 REMAINING -0.2250
-4.3821 REMAINS -0.2250
-4.3821 REMARK -0.2250
-4.3821 REMARKABLE -0.2250
-4.3821 REMARKABLY -0.2250
-4.3821 REMEMBER -0.2250
-4.0811 REMIND -0.2248
-4.3821 REMOTE -0.2250
-4.3821 REMOVAL -0.2250
-4.3821 REMOVE -0.2250
-4.3821 RENT -0.2250
-4.3821 RENTED -0.2250
-4.3821 REPAIR -0.2250
-4.3821 REPEAT -0.2250
-4.3821 REPEATED -0.2250
-4.3821 REPEATEDLY -0.2250
-4.3821 REPLACE -0.2250
-4.3821 REPLY -0.2250
-4.3821 REPORT -0.2250
-4.3821 REPRESENT -0.2250
-4.3821 REPRESENTATIVE -0.2250
-4.3821 REPRODUCE -0.2250
-4.3821 REPUTATION -0.2250
-4.3821 REQUEST -0.2250
-4.3821 REQUIRE -0.2250
-4.3821 REQUIREMENT -0.2250
-4.3821 RESCUE -0.2250
-4.3821 RESEARCH -0.2250
-4.3821 RESERVATION -0.2250
-4.3821 RESERVE -0.2250
-4.3821 RESIDENT -0.2250
-4.3821 RESIST -0.2250
-4.3821 RESISTANCE -0.2250
-4.3821 RESOLVE -0.2250
-4.0811 RESORT -0.2244
-4.3821 RESOURCE -0.2250
-4.3821 RESPECT -0.2250
-4.3821 RESPOND -0.2250
-4.3821 RESPONSE -0.2250
-4.3821 RESPONSIBILITY -0.2250
-4.3821 RESPONSIBLE -0.2250
-4.3821 REST -0.2250
-4.3821 RESTAURANT -0.2250
-4.3821 RESTORE -0.2250
-4.3821 RESTRICT -0.2250
-4.3821 RESTRICTED -0.2250
-4.3821 RESTRICTION -0.2250
-4.0811 RESULT -0.2246
-4.3821 RETAIN -0.2250
-4.3821 RETIRE -0.2250
-4.3821 RETIRED -0.2250
-4.3821 RETIREMENT -0.2250
-4.3821 RETURN -0.2250
-4.3821 REVEAL -0.2250
-4.3821 REVERSE -0.2250
-4.3821 REVIEW -0.2250
-4.3821 REVISE -0.2250
-4.3821 REVISION -0.2250
-4.3821 REVOLUTION -0.2250
-4.3821 REWARD -0.2250
-4.3821 RHYTHM -0.2250
-4.3821 RICE -0.2250
-4.3821 RICH -0.2250
-4.3821 RID -0.2250
-4.3821 RIDE -0.2250
-4.3821 RIDER -0.2250
-4.3821 RIDICULOUS -0.2250
-4.3821 RIDING -0.2250
-4.0811 RIGHT -0.2250
-4.3821 RIGHTLY -0.2250
-3.9050 RING -0.2246
-4.3821 RISE -0.2250
-4.3821 RISK -0.2250
-4.3821 RIVAL -0.2250
-4.3821 RIVER -0.2250
-4.3821 ROAD -0.2250
-4.3821 ROB -0.2250
-4.3821 ROCK -0.2250
-4.3821 ROLE -0.2250
-4.3821 ROLL -0.2250
-4.3821 ROMANTIC -0.2250
-4.3821 ROOF -0.2250
-4.3821 ROOM -0.2250
-4.3821 ROOT -0.2250
-4.3821 ROPE -0.2250
-4.3821 ROUGH -0.2250
-4.3821 ROUGHLY -0.2250
-3.3407 ROUND -0.2244
-4.3821 ROUNDED -0.2250
-4.3821 ROUTE -0.2250
-4.3821 ROUTINE -0.2250
-4.3821 ROW -0.2250
-4.3821 ROYAL -0.2250
-4.3821 RUB -0.2250
-4.3821 RUBBER -0.2250
-4.3821 RUBBISH -0.2250
-4.3821 RUDE -0.2250
-4.3821 RUDELY -0.2250
-4.3821 RUIN -0.2250
-4.3821 RUINED -0.2250
-4.0811 RULE -0.2237
-4.3821 RULER -0.2250
-4.3821 RUMOUR -0.2250
-3.6040 RUN -0.2227
-4.3821 RUNNER -0.2250
-4.3821 RUNNING -0.2250
-4.3821 RURAL -0.2250
-4.3821 RUSH -0.2250
-4.3821 SACK -0.2250
-4.3821 SAD -0.2250
-4.3821 SADLY -0.2250
-4.3821 SADNESS -0.2250
-4.3821 SAFE -0.2250
-4.3821 SAFELY -0.2250
-4.3821 SAFETY -0.2250
-4.3821 SAIL -0.2250
-4.3821 SAILING -0.2250
-4.3821 SAILOR -0.2250
-4.3821 SALAD -0.2250
-4.3821 SALARY -0.2250
-4.3821 SALE -0.2250
-4.3821 SALT -0.2250
-4.3821 SALTY -0.2250
-4.3821 SAME -0.2250
-4.3821 SAMPLE -0.2250
-4.3821 SAND -0.2250
-4.3821 SATISFACTION -0.2250
-4.3821 SATISFIED -0.2250
-4.3821 SATISFY -0.2250
-4.3821 SATISFYING -0.2250
-4.3821 SATURDAY -0.2250
-4.3821 SAUCE -0.2250
-4.3821 SAVE -0.2250
-4.3821 SAVING -0.2250
-4.3821 SAY -0.2250
-4.3821 SCALE -0.2250
-4.0811 SCARE -0.2244
-4.3821 SCARED -0.2250
-4.3821 SCENE -0.2250
-4.3821 SCHEDULE -0.2250
-4.3821 SCHEME -0.2250
-4.3821 SCHOOL -0.2250
-4.3821 SCIENCE -0.2250
-4.3821 SCIENTIFIC -0.2250
-4.3821 SCIENTIST -0.2250
-4.3821 SCISSORS -0.2250
-4.3821 SCORE -0.2250
-4.3821 SCRATCH -0.2250
-4.3821 SCREAM -0.2250
-4.3821 SCREEN -0.2250
-4.3821 SCREW -0.2250
-4.3821 SEA -0.2250
-4.0811 SEAL -0.2244
-4.3821 SEARCH -0.2250
-4.3821 SEASON -0.2250
-4.3821 SEAT -0.2250
-4.3821 SECOND -0.2250
-4.3821 SECONDARY -0.2250
-4.3821 SECRET -0.2250
-4.3821 SECRETARY -0.2250
-4.3821 SECRETLY -0.2250
-4.3821 SECTION -0.2250
-4.3821 SECTOR -0.2250
-4.3821 SECURE -0.2250
-4.3821 SECURITY -0.2250
-3.9050 SEE -0.2242
-4.3821 SEED -0.2250
-4.3821 SEEK -0.2250
-4.3821 SEEM -0.2250
-4.3821 SELECT -0.2250
-4.3821 SELECTION -0.2250
-4.3821 SELF -0.2250
-4.3821 SELF- -0.2250
-3.9050 SELL -0.2230
-4.3821 SENATE -0.2250
-4.3821 SENATOR -0.2250
-3.9050 SEND -0.2241
-4.3821 SENIOR -0.2250
-4.3821 SENSE -0.2250
-4.3821 SENSIBLE -0.2250
-4.3821 SENSITIVE -0.2250
-4.3821 SENTENCE -0.2250
-4.0811 SEPARATE -0.2250
-4.3821 SEPARATED -0.2250
-4.3821 SEPARATELY -0.2250
-4.3821 SEPARATION -0.2250
-4.3821 SEPTEMBER -0.2250
-4.3821 SERIES -0.2250
-4.3821 SERIOUS -0.2250
-4.3821 SERIOUSLY -0.2250
-4.3821 SERVANT -0.2250
-4.3821 SERVE -0.2250
-4.3821 SERVICE -0.2250
-4.3821 SESSION -0.2250
-3.7801 SET -0.2214
-4.0811 SETTLE -0.2244
-4.3821 SEVEN -0.2250
-4.3821 SEVENTEEN -0.2250
-4.3821 SEVENTH -0.2250
-4.3821 SEVENTIETH -0.2250
-4.3821 SEVENTY -0.2250
-4.3821 SEVERAL -0.2250
-4.3821 SEVERE -0.2250
-4.3821 SEVERELY -0.2250
-4.3821 SEW -0.2250
-4.3821 SEWING -0.2250
-4.3821 SEX -0.2250
-4.3821 SEXUAL -0.2250
-4.3821 SEXUALLY -0.2250
-4.3821 SHADE -0.2250
-4.3821 SHADOW -0.2250
-4.3821 SHAKE -0.2250
-4.3821 SHALL -0.2250
-4.3821 SHALLOW -0.2250
-4.3821 SHAME -0.2250
-4.3821 SHAPE -0.2250
-4.3821 SHAPED -0.2250
-4.3821 SHARE -0.2250
-4.3821 SHARP -0.2250
-4.3821 SHARPLY -0.2250
-4.3821 SHAVE -0.2250
-4.3821 SHE -0.2250
-4.3821 SHEEP -0.2250
-4.3821 SHEET -0.2250
-4.3821 SHELF -0.2250
-4.3821 SHELL -0.2250
-4.3821 SHELTER -0.2250
-4.3821 SHIFT -0.2250
-4.3821 SHINE -0.2250
-4.3821 SHINY -0.2250
-4.3821 SHIP -0.2250
-4.3821 SHIRT -0.2250
-4.3821 SHOCK -0.2250
-4.3821 SHOCKED -0.2250
-4.3821 SHOCKING -0.2250
-4.3821 SHOE -0.2250
-4.0811 SHOOT -0.2244
-4.3821 SHOOTING -0.2250
-4.3821 SHOP -0.2250
-4.3821 SHOPPING -0.2250
-4.3821 SHORT -0.2250
-4.3821 SHORTLY -0.2250
-4.3821 SHOT -0.2250
-4.3821 SHOULD -0.2250
-4.3821 SHOULDER -0.2250
-4.3821 SHOUT -0.2250
-3.7801 SHOW -0.2226
-4.3821 SHOWER -0.2250
-3.6832 SHUT -0.2210
-4.3821 SHY -0.2250
-4.3821 SICK -0.2250
-4.3821 SIDE -0.2250
-4.3821 SIDEWAYS -0.2250
-4.3821 SIGHT -0.2250
-4.3821 SIGN -0.2250
-4.3821 SIGNAL -0.2250
-4.3821 SIGNATURE -0.2250
-4.3821 SIGNIFICANT -0.2250
-4.3821 SIGNIFICANTLY -0.2250
-4.3821 SILENCE -0.2250
-4.3821 SILENT -0.2250
-4.3821 SILK -0.2250
-4.3821 SILLY -0.2250
-4.3821 SILVER -0.2250
-4.3821 SIMILAR -0.2250
-4.3821 SIMILARLY -0.2250
-4.3821 SIMPLE -0.2250
-4.3821 SIMPLY -0.2250
-4.3821 SINCE -0.2250
-4.3821 SINCERE -0.2250
-4.3821 SINCERELY -0.2250
-4.3821 SING -0.2250
-4.3821 SINGER -0.2250
-4.3821 SINGING -0.2250
-4.3821 SINGLE -0.2250
-4.3821 SINK -0.2250
-4.3821 SIR -0.2250
-4.3821 SISTER -0.2250
-4.0811 SIT -0.2244
-4.3821 SITE -0.2250
-4.3821 SITUATION -0.2250
-4.3821 SIX -0.2250
-4.3821 SIXTEEN -0.2250
-4.3821 SIXTH -0.2250
-4.3821 SIXTIETH -0.2250
-4.3821 SIXTY -0.2250
-4.3821 SIZE -0.2250
-4.3821 SKILFUL -0.2250
-4.3821 SKILFULLY -0.2250
-4.3821 SKILL -0.2250
-4.3821 SKILLED -0.2250
-4.3821 SKIN -0.2250
-4.3821 SKIRT -0.2250
-4.3821 SKY -0.2250
-4.3821 SLEEP -0.2250
-4.3821 SLEEVE -0.2250
-4.3821 SLICE -0.2250
-4.3821 SLIDE -0.2250
-4.3821 SLIGHT -0.2250
-4.3821 SLIGHTLY -0.2250
-4.3821 SLIP -0.2250
-4.3821 SLOPE -0.2250
-4.3821 SLOW -0.2250
-4.3821 SLOWLY -0.2250
-4.3821 SMALL -0.2250
-4.3821 SMART -0.2250
-4.3821 SMASH -0.2250
-4.3821 SMELL -0.2250
-4.3821 SMILE -0.2250
-4.3821 SMOKE -0.2250
-4.3821 SMOKING -0.2250
-4.3821 SMOOTH -0.2250
-4.3821 SMOOTHLY -0.2250
-4.3821 SNAKE -0.2250
-4.3821 SNOW -0.2250
-4.3821 SO -0.2250
-4.3821 SOAP -0.2250
-4.3821 SOCIAL -0.2250
-4.3821 SOCIALLY -0.2250
-4.3821 SOCIETY -0.2250
-4.3821 SOCK -0.2250
-4.3821 SOFT -0.2250
-4.3821 SOFTLY -0.2250
-4.3821 SOFTWARE -0.2250
-4.3821 SOIL -0.2250
-4.3821 SOLDIER -0.2250
-4.3821 SOLID -0.2250
-4.3821 SOLUTION -0.2250
-4.3821 SOLVE -0.2250
-4.0811 SOME -0.2250
-4.3821 SOMEBODY -0.2250
-4.3821 SOMEHOW -0.2250
-4.3821 SOMEONE -0.2250
-4.3821 SOMETHING -0.2250
-4.3821 SOMETIMES -0.2250
-4.3821 SOMEWHAT -0.2250
-4.3821 SOMEWHERE -0.2250
-4.3821 SON -0.2250
-4.3821 SONG -0.2250
-4.3821 SOON -0.2250
-4.3821 SORE -0.2250
-4.3821 SORRY -0.2250
-4.0811 SORT -0.2237
-4.3821 SOUL -0.2250
-4.3821 SOUND -0.2250
-4.3821 SOUP -0.2250
-4.3821 SOUR -0.2250
-4.3821 SOURCE -0.2250
-4.3821 SOUTH -0.2250
-4.3821 SOUTHERN -0.2250
-4.3821 SPACE -0.2250
-4.3821 SPARE -0.2250
-3.9050 SPEAK -0.2221
-4.3821 SPEAKER -0.2250
-4.3821 SPECIAL -0.2250
-4.3821 SPECIALIST -0.2250
-4.3821 SPECIALLY -0.2250
-4.3821 SPECIFIC -0.2250
-4.3821 SPECIFICALLY -0.2250
-4.3821 SPEECH -0.2250
-4.0811 SPEED -0.2234
-4.3821 SPELL -0.2250
-4.3821 SPELLING -0.2250
-4.3821 SPEND -0.2250
-4.3821 SPICE -0.2250
-4.3821 SPICY -0.2250
-4.3821 SPIDER -0.2250
-4.3821 SPIN -0.2250
-4.3821 SPIRIT -0.2250
-4.3821 SPIRITUAL -0.2250
-4.3821 SPITE -0.2250
-4.0811 SPLIT -0.2234
-4.3821 SPOIL -0.2250
-4.3821 SPOKEN -0.2250
-4.3821 SPOON -0.2250
-4.3821 SPORT -0.2250
-4.3821 SPOT -0.2250
-4.3821 SPRAY -0.2250
-4.0811 SPREAD -0.2237
-4.3821 SPRING -0.2250
-4.3821 SQUARE -0.2250
-4.3821 SQUEEZE -0.2250
-4.3821 STABLE -0.2250
-4.3821 STAFF -0.2250
-4.3821 STAGE -0.2250
-4.3821 STAIR -0.2250
-4.3821 STAMP -0.2250
-3.5370 STAND -0.2213
-4.3821 STANDARD -0.2250
-4.3821 STAR -0.2250
-4.3821 STARE -0.2250
-3.7801 START -0.2214
-4.3821 STATE -0.2250
-4.3821 STATEMENT -0.2250
-4.3821 STATION -0.2250
-4.3821 STATUE -0.2250
-4.3821 STATUS -0.2250
-3.9050 STAY -0.2233
-4.3821 STEADILY -0.2250
-4.3821 STEADY -0.2250
-4.3821 STEAL -0.2250
-4.3821 STEAM -0.2250
-4.3821 STEEL -0.2250
-4.3821 STEEP -0.2250
-4.3821 STEEPLY -0.2250
-4.3821 STEER -0.2250
-4.3821 STEP -0.2250
-3.7801 STICK -0.2214
-4.3821 STICKY -0.2250
-4.3821 STIFF -0.2250
-4.3821 STIFFLY -0.2250
-4.3821 STILL -0.2250
-4.3821 STING -0.2250
-4.3821 STIR -0.2250
-4.3821 STOCK -0.2250
-4.3821 STOMACH -0.2250
-4.3821 STONE -0.2250
-4.3821 STOP -0.2250
-4.3821 STORE -0.2250
-4.3821 STORM -0.2250
-4.3821 STORY -0.2250
-4.3821 STOVE -0.2250
-4.3821 STRAIGHT -0.2250
-4.3821 STRAIN -0.2250
-4.3821 STRANGE -0.2250
-4.3821 STRANGELY -0.2250
-4.3821 STRANGER -0.2250
-4.3821 STRATEGY -0.2250
-4.3821 STREAM -0.2250
-4.3821 STREET -0.2250
-4.3821 STRENGTH -0.2250
-4.3821 STRESS -0.2250
-4.3821 STRESSED -0.2250
-4.3821 STRETCH -0.2250
-4.3821 STRICT -0.2250
-4.3821 STRICTLY -0.2250
-4.3821 STRIKE -0.2250
-4.3821 STRIKING -0.2250
-4.3821 STRING -0.2250
-4.3821 STRIP -0.2250
-4.3821 STRIPE -0.2250
-4.3821 STRIPED -0.2250
-4.3821 STROKE -0.2250
-4.3821 STRONG -0.2250
-4.3821 STRONGLY -0.2250
-4.3821 STRUCTURE -0.2250
-4.3821 STRUGGLE -0.2250
-4.3821 STUDENT -0.2250
-4.3821 STUDIO -0.2250
-4.3821 STUDY -0.2250
-4.3821 STUFF -0.2250
-4.3821 STUPID -0.2250
-4.3821 STYLE -0.2250
-4.3821 SUBJECT -0.2250
-4.3821 SUBSTANCE -0.2250
-4.3821 SUBSTANTIAL -0.2250
-4.3821 SUBSTANTIALLY -0.2250
-4.3821 SUBSTITUTE -0.2250
-4.3821 SUCCEED -0.2250
-4.3821 SUCCESS -0.2250
-4.3821 SUCCESSFUL -0.2250
-4.3821 SUCCESSFULLY -0.2250
-4.3821 SUCH -0.2250
-4.3821 SUCK -0.2250
-4.3821 SUDDEN -0.2250
-4.3821 SUDDENLY -0.2250
-4.3821 SUFFER -0.2250
-4.3821 SUFFERING -0.2250
-4.3821 SUFFICIENT -0.2250
-4.3821 SUFFICIENTLY -0.2250
-4.3821 SUGAR -0.2250
-4.3821 SUGGEST -0.2250
-4.3821 SUGGESTION -0.2250
-4.3821 SUIT -0.2250
-4.3821 SUITABLE -0.2250
-4.3821 SUITCASE -0.2250
-4.3821 SUITED -0.2250
-4.0811 SUM -0.2234
-4.3821 SUMMARY -0.2250
-4.3821 SUMMER -0.2250
-4.3821 SUN -0.2250
-4.3821 SUNDAY -0.2250
-4.3821 SUPERIOR -0.2250
-4.3821 SUPERMARKET -0.2250
-4.3821 SUPPLY -0.2250
-4.3821 SUPPORT -0.2250
-4.3821 SUPPORTER -0.2250
-4.3821 SUPPOSE -0.2250
-4.3821 SURE -0.2250
-4.3821 SURELY -0.2250
-4.3821 SURFACE -0.2250
-4.3821 SURNAME -0.2250
-4.3821 SURPRISE -0.2250
-4.3821 SURPRISED -0.2250
-4.3821 SURPRISING -0.2250
-4.3821 SURPRISINGLY -0.2250
-4.3821 SURROUND -0.2250
-4.3821 SURROUNDING -0.2250
-4.3821 SURROUNDINGS -0.2250
-4.0811 SURVEY -0.2250
-4.3821 SURVIVE -0.2250
-4.3821 SUSPECT -0.2250
-4.3821 SUSPICION -0.2250
-4.3821 SUSPICIOUS -0.2250
-4.3821 SWALLOW -0.2250
-4.3821 SWEAR -0.2250
-4.3821 SWEARING -0.2250
-4.3821 SWEAT -0.2250
-4.3821 SWEATER -0.2250
-4.3821 SWEEP -0.2250
-4.3821 SWEET -0.2250
-4.3821 SWELL -0.2250
-4.3821 SWELLING -0.2250
-4.3821 SWIM -0.2250
-4.0811 SWIMMING -0.2250
-4.3821 SWING -0.2250
-4.0811 SWITCH -0.2244
-4.3821 SWOLLEN -0.2250
-4.3821 SYMBOL -0.2250
-4.3821 SYMPATHETIC -0.2250
-4.3821 SYMPATHY -0.2250
-4.3821 SYSTEM -0.2250
-4.3821 TABLE -0.2250
-4.3821 TABLET -0.2250
-4.3821 TACKLE -0.2250
-4.3821 TAIL -0.2250
-3.4279 TAKE -0.2200
-4.3821 TALK -0.2250
-4.3821 TALL -0.2250
-4.3821 TANK -0.2250
-4.3821 TAP -0.2250
-4.3821 TAPE -0.2250
-4.3821 TARGET -0.2250
-4.3821 TASK -0.2250
-4.3821 TASTE -0.2250
-4.3821 TAX -0.2250
-4.3821 TAXI -0.2250
-4.3821 TEA -0.2250
-4.3821 TEACH -0.2250
-4.3821 TEACHER -0.2250
-4.3821 TEACHING -0.2250
-4.3821 TEAM -0.2250
-3.9050 TEAR -0.2234
-4.3821 TECHNICAL -0.2250
-4.3821 TECHNIQUE -0.2250
-4.3821 TECHNOLOGY -0.2250
-4.3821 TELEPHONE -0.2250
-4.3821 TELEVISION -0.2250
-4.0811 TELL -0.2244
-4.3821 TEMPERATURE -0.2250
-4.3821 TEMPORARILY -0.2250
-4.3821 TEMPORARY -0.2250
-4.3821 TEN -0.2250
-4.3821 TEND -0.2250
-4.3821 TENDENCY -0.2250
-4.3821 TENSION -0.2250
-4.3821 TENT -0.2250
-4.3821 TENTH -0.2250
-4.3821 TERM -0.2250
-4.3821 TERRIBLE -0.2250
-4.3821 TERRIBLY -0.2250
-4.3821 TEST -0.2250
-4.3821 TEXT -0.2250
-4.3821 THAN -0.2250
-4.0811 THANK -0.2250
-4.3821 THANKS -0.2250
-4.0811 THAT -0.2250
-3.9050 THE -0.2249
-4.3821 THEATER -0.2250
-4.3821 THEATRE -0.2250
-4.3821 THEIR -0.2250
-4.3821 THEIRS -0.2250
-4.3821 THEM -0.2250
-4.3821 THEME -0.2250
-4.3821 THEMSELVES -0.2250
-4.3821 THEN -0.2250
-4.3821 THEORY -0.2250
-4.3821 THERE -0.2250
-4.3821 THEREFORE -0.2250
-4.3821 THEY -0.2250
-4.3821 THICK -0.2250
-4.3821 THICKLY -0.2250
-4.3821 THICKNESS -0.2250
-4.3821 THIEF -0.2250
-4.3821 THIN -0.2250
-4.3821 THING -0.2250
-3.6040 THINK -0.2227
-4.3821 THINKING -0.2250
-4.3821 THIRD -0.2250
-4.3821 THIRSTY -0.2250
-4.3821 THIRTEEN -0.2250
-4.3821 THIRTEENTH -0.2250
-4.3821 THIRTIETH -0.2250
-4.3821 THIRTY -0.2250
-4.3821 THIS -0.2250
-4.3821 THOROUGH -0.2250
-4.3821 THOROUGHLY -0.2250
-4.3821 THOUGH -0.2250
-4.3821 THOUGHT -0.2250
-4.3821 THOUSAND -0.2250
-4.3821 THOUSANDTH -0.2250
-4.3821 THREAD -0.2250
-4.3821 THREAT -0.2250
-4.3821 THREATEN -0.2250
-4.3821 THREATENING -0.2250
-4.3821 THREE -0.2250
-4.3821 THROAT -0.2250
-3.3821 THROUGH -0.2246
-4.3821 THROUGHOUT -0.2250
-3.9050 THROW -0.2233
-4.3821 THUMB -0.2250
-4.3821 THURSDAY -0.2250
-4.3821 THUS -0.2250
-4.3821 TICKET -0.2250
-4.3821 TIDY -0.2250
-4.0811 TIE -0.2234
-4.3821 TIGHT -0.2250
-4.3821 TIGHTLY -0.2250
-4.3821 TILL -0.2250
-4.3821 TIME -0.2250
-4.3821 TIMETABLE -0.2250
-4.3821 TIN -0.2250
-4.3821 TINY -0.2250
-4.0811 TIP -0.2247
-4.0811 TIRE -0.2237
-4.3821 TIRED -0.2250
-4.3821 TIRING -0.2250
-4.3821 TITLE -0.2250
-2.9050 TO -0.2250
-4.3821 TODAY -0.2250
-4.3821 TOE -0.2250
-3.7801 TOGETHER -0.2250
-4.3821 TOILET -0.2250
-4.3821 TOMATO -0.2250
-4.3821 TOMORROW -0.2250
-4.3821 TON -0.2250
-4.3821 TONE -0.2250
-4.3821 TONGUE -0.2250
-4.3821 TONIGHT -0.2250
-4.3821 TONNE -0.2250
-4.3821 TOO -0.2250
-4.3821 TOOL -0.2250
-4.3821 TOOTH -0.2250
-4.3821 TOP -0.2250
-4.3821 TOPIC -0.2250
-4.3821 TOTAL -0.2250
-4.3821 TOTALLY -0.2250
-4.3821 TOUCH -0.2250
-4.3821 TOUGH -0.2250
-4.3821 TOUR -0.2250
-4.3821 TOURIST -0.2250
-4.3821 TOWARDS -0.2250
-4.3821 TOWEL -0.2250
-4.3821 TOWER -0.2250
-4.3821 TOWN -0.2250
-4.3821 TOY -0.2250
-4.3821 TRACE -0.2250
-4.3821 TRACK -0.2250
-4.3821 TRADE -0.2250
-4.3821 TRADING -0.2250
-4.3821 TRADITION -0.2250
-4.3821 TRADITIONAL -0.2250
-4.3821 TRADITIONALLY -0.2250
-4.3821 TRAFFIC -0.2250
-4.3821 TRAIN -0.2250
-4.3821 TRAINING -0.2250
-4.0811 TRANSFER -0.2250
-4.3821 TRANSFORM -0.2250
-4.3821 TRANSLATE -0.2250
-4.3821 TRANSLATION -0.2250
-4.3821 TRANSPARENT -0.2250
-4.0811 TRANSPORT -0.2250
-4.3821 TRANSPORTATION -0.2250
-4.3821 TRAP -0.2250
-4.3821 TRAVEL -0.2250
-4.3821 TRAVELLER -0.2250
-4.3821 TREAT -0.2250
-4.3821 TREATMENT -0.2250
-4.3821 TREE -0.2250
-4.3821 TREND -0.2250
-4.3821 TRIAL -0.2250
-4.3821 TRIANGLE -0.2250
-4.3821 TRICK -0.2250
-4.3821 TRIP -0.2250
-4.3821 TROPICAL -0.2250
-4.3821 TROUBLE -0.2250
-4.3821 TROUSERS -0.2250
-4.3821 TRUCK -0.2250
-4.3821 TRUE -0.2250
-4.3821 TRULY -0.2250
-4.3821 TRUST -0.2250
-4.3821 TRUTH -0.2250
-3.9050 TRY -0.2229
-4.3821 TUBE -0.2250
-4.3821 TUESDAY -0.2250
-4.3821 TUNE -0.2250
-4.3821 TUNNEL -0.2250
-3.3407 TURN -0.2183
-4.3821 TV -0.2250
-4.3821 TWELFTH -0.2250
-4.3821 TWELVE -0.2250
-4.3821 TWENTIETH -0.2250
-4.3821 TWENTY -0.2250
-4.3821 TWICE -0.2250
-4.3821 TWIN -0.2250
-4.3821 TWIST -0.2250
-4.3821 TWISTED -0.2250
-4.3821 TWO -0.2250
-4.3821 TYPE -0.2250
-4.3821 TYPICAL -0.2250
-4.3821 TYPICALLY -0.2250
-4.3821 TYRE -0.2250
-4.3821 UGLY -0.2250
-4.3821 ULTIMATE -0.2250
-4.3821 ULTIMATELY -0.2250
-4.3821 UMBRELLA -0.2250
-4.3821 UNABLE -0.2250
-4.3821 UNACCEPTABLE -0.2250
-4.3821 UNCERTAIN -0.2250
-4.3821 UNCLE -0.2250
-4.3821 UNCOMFORTABLE -0.2250
-4.3821 UNCONSCIOUS -0.2250
-4.3821 UNCONTROLLED -0.2250
-4.3821 UNDER -0.2250
-4.3821 UNDERGROUND -0.2250
-4.3821 UNDERNEATH -0.2250
-4.3821 UNDERSTAND -0.2250
-4.3821 UNDERSTANDING -0.2250
-4.3821 UNDERWATER -0.2250
-4.3821 UNDERWEAR -0.2250
-4.3821 UNDO -0.2250
-4.0811 UNEMPLOYED -0.2250
-4.3821 UNEMPLOYMENT -0.2250
-4.0811 UNEXPECTED -0.2250
-4.3821 UNEXPECTEDLY -0.2250
-4.3821 UNFAIR -0.2250
-4.3821 UNFAIRLY -0.2250
-4.3821 UNFORTUNATE -0.2250
-4.3821 UNFORTUNATELY -0.2250
-4.3821 UNFRIENDLY -0.2250
-4.3821 UNHAPPY -0.2250
-4.3821 UNIFORM -0.2250
-4.3821 UNIMPORTANT -0.2250
-4.3821 UNION -0.2250
-4.3821 UNIQUE -0.2250
-4.3821 UNIT -0.2250
-4.3821 UNITE -0.2250
-4.3821 UNITED -0.2250
-4.3821 UNIVERSE -0.2250
-4.3821 UNIVERSITY -0.2250
-4.3821 UNKIND -0.2250
-4.3821 UNKNOWN -0.2250
-4.3821 UNLESS -0.2250
-4.3821 UNLIKE -0.2250
-4.3821 UNLIKELY -0.2250
-4.3821 UNLOAD -0.2250
-4.3821 UNLUCKY -0.2250
-4.3821 UNNECESSARY -0.2250
-4.3821 UNPLEASANT -0.2250
-4.3821 UNREASONABLE -0.2250
-4.3821 UNSTEADY -0.2250
-4.3821 UNSUCCESSFUL -0.2250
-4.3821 UNTIDY -0.2250
-4.3821 UNTIL -0.2250
-4.3821 UNUSUAL -0.2250
-4.3821 UNUSUALLY -0.2250
-4.3821 UNWILLING -0.2250
-4.3821 UNWILLINGLY -0.2250
-2.5129 UP -0.2230
-4.3821 UPON -0.2250
-4.3821 UPPER -0.2250
-4.0811 UPSET -0.2250
-4.3821 UPSETTING -0.2250
-4.3821 UPSIDE -0.3006
-4.3821 UPSTAIRS -0.2250
-4.3821 UPWARD -0.2250
-4.3821 UPWARDS -0.2250
-4.3821 URBAN -0.2250
-4.3821 URGE -0.2250
-4.3821 URGENT -0.2250
-4.3821 US -0.2250
-3.9050 USE -0.2234
-3.9050 USED -0.2244
-4.3821 USEFUL -0.2250
-4.3821 USELESS -0.2250
-4.3821 USER -0.2250
-4.3821 USUAL -0.2250
-4.3821 USUALLY -0.2250
-4.3821 VACATION -0.2250
-4.3821 VALID -0.2250
-4.3821 VALLEY -0.2250
-4.3821 VALUABLE -0.2250
-4.3821 VALUE -0.2250
-4.3821 VAN -0.2250
-4.3821 VARIATION -0.2250
-4.3821 VARIED -0.2250
-4.3821 VARIETY -0.2250
-4.3821 VARIOUS -0.2250
-4.3821 VARY -0.2250
-4.3821 VAST -0.2250
-4.3821 VEGETABLE -0.2250
-4.3821 VEHICLE -0.2250
-4.3821 VENTURE -0.2250
-4.3821 VERSION -0.2250
-4.3821 VERTICAL -0.2250
-4.3821 VERY -0.2250
-4.3821 VIA -0.2250
-4.3821 VICTIM -0.2250
-4.3821 VICTORY -0.2250
-4.3821 VIDEO -0.2250
-4.3821 VIEW -0.2250
-4.3821 VILLAGE -0.2250
-4.3821 VIOLENCE -0.2250
-4.3821 VIOLENT -0.2250
-4.3821 VIOLENTLY -0.2250
-4.3821 VIRTUALLY -0.2250
-4.3821 VIRUS -0.2250
-4.3821 VISIBLE -0.2250
-4.3821 VISION -0.2250
-4.3821 VISIT -0.2250
-4.3821 VISITOR -0.2250
-4.3821 VITAL -0.2250
-4.3821 VOCABULARY -0.2250
-4.3821 VOICE -0.2250
-4.3821 VOLUME -0.2250
-4.3821 VOTE -0.2250
-4.3821 WAGE -0.2250
-4.3821 WAIST -0.2250
-4.3821 WAIT -0.2250
-4.3821 WAITER -0.2250
-4.3821 WAKE -0.2250
-3.9050 WALK -0.2221
-4.3821 WALKING -0.2250
-4.3821 WALL -0.2250
-4.3821 WALLET -0.2250
-4.3821 WANDER -0.2250
-4.3821 WANT -0.2250
-4.3821 WAR -0.2250
-4.0811 WARM -0.2234
-4.3821 WARMTH -0.2250
-4.3821 WARN -0.2250
-4.3821 WARNING -0.2250
-3.6832 WASH -0.2211
-4.3821 WASHING -0.2250
-4.3821 WASTE -0.2250
-3.9050 WATCH -0.2237
-4.3821 WATER -0.2250
-4.3821 WAVE -0.2250
-4.3821 WAY -0.2250
-4.3821 WE -0.2250
-4.3821 WEAK -0.2250
-4.3821 WEAKNESS -0.2250
-4.3821 WEALTH -0.2250
-4.3821 WEAPON -0.2250
-3.7801 WEAR -0.2227
-4.3821 WEATHER -0.2250
-4.3821 WEB -0.2250
-4.3821 WEBSITE -0.2250
-4.3821 WEDDING -0.2250
-4.3821 WEDNESDAY -0.2250
-4.3821 WEEK -0.2250
-4.3821 WEEKEND -0.2250
-4.3821 WEEKLY -0.2250
-4.3821 WEIGH -0.2250
-4.3821 WEIGHT -0.2250
-4.3821 WELCOME -0.2250
-4.0811 WELL -0.2250
-4.3821 WEST -0.2250
-4.3821 WESTERN -0.2250
-4.3821 WET -0.2250
-4.3821 WHAT -0.2250
-4.3821 WHATEVER -0.2250
-4.3821 WHEEL -0.2250
-4.3821 WHEN -0.2250
-4.3821 WHENEVER -0.2250
-4.3821 WHERE -0.2250
-4.3821 WHEREAS -0.2250
-4.3821 WHEREVER -0.2250
-4.3821 WHETHER -0.2250
-4.3821 WHICH -0.2250
-4.3821 WHILE -0.2250
-4.3821 WHISPER -0.2250
-4.3821 WHISTLE -0.2250
-4.3821 WHITE -0.2250
-4.3821 WHO -0.2250
-4.3821 WHOEVER -0.2250
-4.3821 WHOLE -0.2250
-4.3821 WHOM -0.2250
-4.3821 WHOSE -0.2250
-4.3821 WHY -0.2250
-4.3821 WIDE -0.2250
-4.3821 WIDELY -0.2250
-4.3821 WIDTH -0.2250
-4.3821 WIFE -0.2250
-4.3821 WILD -0.2250
-4.3821 WILDLY -0.2250
-4.3821 WILL -0.2250
-4.3821 WILLING -0.2250
-4.3821 WILLINGLY -0.2250
-4.3821 WILLINGNESS -0.2250
-4.3821 WIN -0.2250
-4.0811 WIND -0.2250
-4.3821 WINDOW -0.2250
-4.3821 WINE -0.2250
-4.3821 WING -0.2250
-4.3821 WINNER -0.2250
-4.3821 WINNING -0.2250
-4.3821 WINTER -0.2250
-4.3821 WIRE -0.2250
-4.3821 WISE -0.2250
-4.3821 WISH -0.2250
-3.1517 WITH -0.2249
-4.3821 WITHDRAW -0.2250
-4.3821 WITHIN -0.2250
-3.9050 WITHOUT -0.2250
-4.3821 WITNESS -0.2250
-4.3821 WOMAN -0.2250
-4.3821 WONDER -0.2250
-4.3821 WONDERFUL -0.2250
-4.3821 WOOD -0.2250
-4.3821 WOODEN -0.2250
-4.3821 WOOL -0.2250
-4.3821 WORD -0.2250
-4.0811 WORK -0.2237
-4.3821 WORKER -0.2250
-4.3821 WORKING -0.2250
-4.3821 WORLD -0.2250
-4.3821 WORRIED -0.2250
-4.3821 WORRY -0.2250
-4.3821 WORRYING -0.2250
-4.3821 WORSE -0.2250
-4.3821 WORSHIP -0.2250
-4.3821 WORST -0.2250
-4.3821 WORTH -0.2250
-4.3821 WOULD -0.2250
-4.3821 WOUND -0.2250
-4.3821 WOUNDED -0.2250
-4.3821 WRAP -0.2250
-4.3821 WRAPPING -0.2250
-4.3821 WRIST -0.2250
-3.9050 WRITE -0.2240
-4.3821 WRITER -0.2250
-4.3821 WRITING -0.2250
-4.3821 WRITTEN -0.2250
-4.3821 WRONG -0.2250
-4.3821 WRONGLY -0.2250
-4.3821 YARD -0.2250
-4.3821 YAWN -0.2250
-4.3821 YEAH -0.2250
-4.3821 YEAR -0.2250
-4.3821 YELLOW -0.2250
-4.3821 YES -0.2250
-4.3821 YESTERDAY -0.2250
-4.3821 YET -0.2250
-4.0811 YOU -0.2250
-4.3821 YOUNG -0.2250
-4.3821 YOUR -0.2250
-4.3821 YOURS -0.2250
-4.3821 YOURSELF -0.2250
-4.3821 YOUTH -0.2250
-4.3821 ZERO -0.2250
-4.3821 ZONE -0.2250

\2-grams:
-3.5878 <s> A 0.0000
-3.8889 <s> A.M. 0.0000
-3.8889 <s> ABANDON 0.0000
-3.8889 <s> ABANDONED 0.0000
-3.8889 <s> ABILITY 0.0000
-3.8889 <s> ABLE 0.0000
-3.8889 <s> ABOUT -0.0580
-3.8889 <s> ABOVE 0.0000
-3.8889 <s> ABROAD 0.0000
-3.8889 <s> ABSENCE 0.0000
-3.8889 <s> ABSENT 0.0000
-3.8889 <s> ABSOLUTE 0.0000
-3.8889 <s> ABSOLUTELY 0.0000
-3.8889 <s> ABSORB 0.0000
-3.5878 <s> ABUSE 0.0000
-3.8889 <s> ACADEMIC 0.0000
-3.8889 <s> ACCENT 0.0000
-3.8889 <s> ACCEPT 0.0000
-3.8889 <s> ACCEPTABLE 0.0000
-3.8889 <s> ACCESS 0.0000
-3.8889 <s> ACCIDENT 0.0000
-3.8889 <s> ACCIDENTAL 0.0000
-3.8889 <s> ACCIDENTALLY 0.0000
-3.8889 <s> ACCOMMODATION 0.0000
-3.8889 <s> ACCOMPANY 0.0000
-3.8889 <s> ACCORDING 0.0000
-3.5878 <s> ACCOUNT 0.0000
-3.8889 <s> ACCURATE 0.0000
-3.8889 <s> ACCURATELY 0.0000
-3.8889 <s> ACCUSE 0.0000
-3.8889 <s> ACHIEVE 0.0000
-3.8889 <s> ACHIEVEMENT 0.0000
-3.8889 <s> ACID 0.0000
-3.8889 <s> ACKNOWLEDGE 0.0000
-3.8889 <s> ACQUIRE 0.0000
-3.8889 <s> ACROSS 0.0000
-3.8889 <s> ACT 0.0000
-3.8889 <s> ACTION 0.0000
-3.8889 <s> ACTIVE 0.0000
-3.8889 <s> ACTIVELY 0.0000
-3.8889 <s> ACTIVITY 0.0000
-3.8889 <s> ACTOR 0.0000
-3.8889 <s> ACTRESS 0.0000
-3.8889 <s> ACTUAL 0.0000
-3.8889 <s> ACTUALLY 0.0000
-3.8889 <s> AD 0.0000
-3.8889 <s> ADAPT 0.0000
-3.2868 <s> ADD 0.0000
-3.8889 <s> ADDITION 0.0000
-3.8889 <s> ADDITIONAL 0.0000
-3.8889 <s> ADDRESS 0.0000
-3.8889 <s> ADEQUATE 0.0000
-3.8889 <s> ADEQUATELY 0.0000
-3.8889 <s> ADJUST 0.0000
-3.8889 <s> ADMIRATION 0.0000
-3.8889 <s> ADMIRE 0.0000
-3.8889 <s> ADMIT 0.0000
-3.8889 <s> ADOPT 0.0000
-3.8889 <s> ADULT 0.0000
-3.8889 <s> ADVANCE 0.0000
-3.8889 <s> ADVANCED 0.0000
-3.8889 <s> ADVANTAGE 0.0000
-3.8889 <s> ADVENTURE 0.0000
-3.8889 <s> ADVERT 0.0000
-3.8889 <s> ADVERTISE 0.0000
-3.8889 <s> ADVERTISEMENT 0.0000
-3.8889 <s> ADVERTISING 0.0000
-3.8889 <s> ADVICE 0.0000
-3.8889 <s> ADVISE 0.0000
-3.8889 <s> AFFAIR 0.0000
-3.8889 <s> AFFECT 0.0000
-3.8889 <s> AFFECTION 0.0000
-3.8889 <s> AFFORD 0.0000
-3.8889 <s> AFRAID 0.0000
-3.8889 <s> AFTER 0.0000
-3.8889 <s> AFTERNOON 0.0000
-3.8889 <s> AFTERWARDS 0.0000
-3.8889 <s> AGAIN 0.0000
-3.8889 <s> AGAINST 0.0000
-3.8889 <s> AGE 0.0000
-3.8889 <s> AGED 0.0000
-3.8889 <s> AGENCY 0.0000
-3.8889 <s> AGENT 0.0000
-3.8889 <s> AGGRESSIVE 0.0000
-3.8889 <s> AGO 0.0000
-3.8889 <s> AGREE 0.0000
-3.8889 <s> AGREEMENT 0.0000
-3.8889 <s> AHEAD 0.0000
-3.8889 <s> AID 0.0000
-3.8889 <s> AIM 0.0000
-3.8889 <s> AIR 0.0000
-3.8889 <s> AIRCRAFT 0.0000
-3.8889 <s> AIRPORT 0.0000
-3.8889 <s> ALARM 0.0000
-3.8889 <s> ALARMED 0.0000
-3.8889 <s> ALARMING 0.0000
-3.8889 <s> ALCOHOL 0.0000
-3.8889 <s> ALCOHOLIC 0.0000
-3.8889 <s> ALIVE 0.0000
-3.5878 <s> ALL 0.0000
-3.8889 <s> ALLIED 0.0000
-3.5878 <s> ALLOW 0.0000
-3.8889 <s> ALLY 0.0000
-3.8889 <s> ALMOST 0.0000
-3.8889 <s> ALONE 0.0000
-3.8889 <s> ALONG 0.0000
-3.8889 <s> ALONGSIDE 0.0000
-3.8889 <s> ALOUD 0.0000
-3.8889 <s> ALPHABET 0.0000
-3.8889 <s> ALPHABETICAL 0.0000
-3.8889 <s> ALPHABETICALLY 0.0000
-3.8889 <s> ALREADY 0.0000
-3.8889 <s> ALSO 0.0000
-3.8889 <s> ALTER 0.0000
-3.8889 <s> ALTERNATIVE 0.0000
-3.8889 <s> ALTERNATIVELY 0.0000
-3.8889 <s> ALTHOUGH 0.0000
-3.8889 <s> ALTOGETHER 0.0000
-3.8889 <s> ALWAYS 0.0000
-3.8889 <s> AMAZE 0.0000
-3.8889 <s> AMAZED 0.0000
-3.8889 <s> AMAZING 0.0000
-3.8889 <s> AMBITION 0.0000
-3.8889 <s> AMBULANCE 0.0000
-3.8889 <s> AMONG 0.0000
-3.5878 <s> AMOUNT 0.0000
-3.8889 <s> AMUSE 0.0000
-3.8889 <s> AMUSED 0.0000
-3.8889 <s> AMUSING 0.0000
-3.8889 <s> ANALYSE 0.0000
-3.8889 <s> ANALYSIS 0.0000
-3.8889 <s> ANCIENT 0.0000
-3.8889 <s> AND 0.0000
-3.8889 <s> ANGER 0.0000
-3.8889 <s> ANGLE 0.0000
-3.8889 <s> ANGRILY 0.0000
-3.8889 <s> ANGRY 0.0000
-3.8889 <s> ANIMAL 0.0000
-3.8889 <s> ANKLE 0.0000
-3.8889 <s> ANNIVERSARY 0.0000
-3.8889 <s> ANNOUNCE 0.0000
-3.8889 <s> ANNOY 0.0000
-3.8889 <s> ANNOYED 0.0000
-3.8889 <s> ANNOYING 0.0000
-3.8889 <s> ANNUAL 0.0000
-3.8889 <s> ANNUALLY 0.0000
-3.8889 <s> ANOTHER 0.0000
-3.8889 <s> ANSWER 0.0000
-3.8889 <s> ANTI- 0.0000
-3.8889 <s> ANTICIPATE 0.0000
-3.8889 <s> ANXIETY 0.0000
-3.8889 <s> ANXIOUS 0.0000
-3.8889 <s> ANXIOUSLY 0.0000
-3.8889 <s> ANY 0.0000
-3.8889 <s> ANYBODY 0.0000
-3.8889 <s> ANYONE 0.0000
-3.8889 <s> ANYTHING 0.0000
-3.8889 <s> ANYWAY 0.0000
-3.8889 <s> ANYWHERE 0.0000
-3.5878 <s> APART 0.0000
-3.8889 <s> APARTMENT 0.0000
-3.8889 <s> APOLOGIZE 0.0000
-3.8889 <s> APPARENT 0.0000
-3.8889 <s> APPARENTLY 0.0000
-3.8889 <s> APPEAL 0.0000
-3.8889 <s> APPEAR 0.0000
-3.8889 <s> APPEARANCE 0.0000
-3.8889 <s> APPLE 0.0000
-3.8889 <s> APPLICATION 0.0000
-3.8889 <s> APPLY 0.0000
-3.8889 <s> APPOINT 0.0000
-3.8889 <s> APPOINTMENT 0.0000
-3.8889 <s> APPRECIATE 0.0000
-3.8889 <s> APPROACH 0.0000
-3.8889 <s> APPROPRIATE 0.0000
-3.8889 <s> APPROVAL 0.0000
-3.8889 <s> APPROVE 0.0000
-3.8889 <s> APPROVING 0.0000
-3.8889 <s> APPROXIMATE 0.0000
-3.8889 <s> APPROXIMATELY 0.0000
-3.8889 <s> APRIL 0.0000
-3.8889 <s> AREA 0.0000
-3.8889 <s> ARGUE 0.0000
-3.8889 <s> ARGUMENT 0.0000
-3.8889 <s> ARISE 0.0000
-3.8889 <s> ARM 0.0000
-3.8889 <s> ARMED 0.0000
-3.8889 <s> ARMS 0.0000
-3.8889 <s> ARMY 0.0000
-3.8889 <s> AROUND -0.0969
-3.8889 <s> ARRANGE 0.0000
-3.8889 <s> ARRANGEMENT 0.0000
-3.8889 <s> ARREST 0.0000
-3.8889 <s> ARRIVAL 0.0000
-3.5878 <s> ARRIVE 0.0000
-3.8889 <s> ARROW 0.0000
-3.8889 <s> ART 0.0000
-3.8889 <s> ARTICLE 0.0000
-3.8889 <s> ARTIFICIAL 0.0000
-3.8889 <s> ARTIFICIALLY 0.0000
-3.8889 <s> ARTIST 0.0000
-3.8889 <s> ARTISTIC 0.0000
-3.8889 <s> ARTISTICALLY 0.0000
-3.8889 <s> AS 0.0000
-3.8889 <s> ASHAMED 0.0000
-3.5878 <s> ASIDE 0.0000
-3.8889 <s> ASK 0.0000
-3.8889 <s> ASLEEP 0.0000
-3.8889 <s> ASPECT 0.0000
-3.8889 <s> ASSIST 0.0000
-3.8889 <s> ASSISTANCE 0.0000
-3.8889 <s> ASSISTANT 0.0000
-3.8889 <s> ASSOCIATE 0.0000
-3.8889 <s> ASSOCIATED 0.0000
-3.8889 <s> ASSOCIATION 0.0000
-3.8889 <s> ASSUME 0.0000
-3.8889 <s> ASSURE 0.0000
-3.8889 <s> AT 0.0000
-3.8889 <s> ATMOSPHERE 0.0000
-3.8889 <s> ATOM 0.0000
-3.8889 <s> ATTACH 0.0000
-3.8889 <s> ATTACHED 0.0000
-3.8889 <s> ATTACK 0.0000
-3.8889 <s> ATTEMPT 0.0000
-3.8889 <s> ATTEMPTED 0.0000
-3.5878 <s> ATTEND 0.0000
-3.8889 <s> ATTENTION 0.0000
-3.8889 <s> ATTITUDE 0.0000
-3.8889 <s> ATTORNEY 0.0000
-3.8889 <s> ATTRACT 0.0000
-3.8889 <s> ATTRACTION 0.0000
-3.8889 <s> ATTRACTIVE 0.0000
-3.8889 <s> AUDIENCE 0.0000
-3.8889 <s> AUGUST 0.0000
-3.8889 <s> AUNT 0.0000
-3.8889 <s> AUTHOR 0.0000
-3.8889 <s> AUTHORITY 0.0000
-3.8889 <s> AUTOMATIC 0.0000
-3.8889 <s> AUTOMATICALLY 0.0000
-3.8889 <s> AUTUMN 0.0000
-3.8889 <s> AVAILABLE 0.0000
-3.8889 <s> AVERAGE 0.0000
-3.8889 <s> AVOID 0.0000
-3.8889 <s> AWAKE 0.0000
-3.8889 <s> AWARD 0.0000
-3.8889 <s> AWARE 0.0000
-3.8889 <s> AWAY -0.0263
-3.8889 <s> AWFUL 0.0000
-3.8889 <s> AWFULLY 0.0000
-3.8889 <s> AWKWARD 0.0000
-3.8889 <s> AWKWARDLY 0.0000
-3.8889 <s> BABY 0.0000
-3.5878 <s> BACK -0.0212
-3.8889 <s> BACKGROUND 0.0000
-3.8889 <s> BACKWARD 0.0000
-3.8889 <s> BACKWARDS 0.0000
-3.8889 <s> BACTERIA 0.0000
-3.8889 <s> BAD 0.0000
-3.8889 <s> BAD-TEMPERED 0.0000
-3.8889 <s> BADLY 0.0000
-3.8889 <s> BAG 0.0000
-3.8889 <s> BAGGAGE 0.0000
-3.8889 <s> BAKE 0.0000
-3.8889 <s> BALANCE 0.0000
-3.8889 <s> BALL 0.0000
-3.8889 <s> BAN 0.0000
-3.8889 <s> BAND 0.0000
-3.8889 <s> BANDAGE 0.0000
-3.8889 <s> BANK 0.0000
-3.8889 <s> BAR 0.0000
-3.8889 <s> BARGAIN 0.0000
-3.8889 <s> BARRIER 0.0000
-3.5878 <s> BASE 0.0000
-3.8889 <s> BASED 0.0000
-3.8889 <s> BASIC 0.0000
-3.8889 <s> BASICALLY 0.0000
-3.8889 <s> BASIS 0.0000
-3.8889 <s> BATH 0.0000
-3.8889 <s> BATHROOM 0.0000
-3.8889 <s> BATTERY 0.0000
-3.8889 <s> BATTLE 0.0000
-3.8889 <s> BAY 0.0000
-3.5878 <s> BE 0.0000
-3.8889 <s> BEACH 0.0000
-3.8889 <s> BEAK 0.0000
-3.8889 <s> BEAR 0.0000
-3.8889 <s> BEARD 0.0000
-3.5878 <s> BEAT 0.0000
-3.8889 <s> BEAUTIFUL 0.0000
-3.8889 <s> BEAUTIFULLY 0.0000
-3.8889 <s> BEAUTY 0.0000
-3.5878 <s> BECAUSE 0.0000
-3.8889 <s> BECOME 0.0000
-3.8889 <s> BED 0.0000
-3.8889 <s> BEDROOM 0.0000
-3.8889 <s> BEEF 0.0000
-3.8889 <s> BEER 0.0000
-3.8889 <s> BEFORE 0.0000
-3.8889 <s> BEGIN 0.0000
-3.8889 <s> BEGINNING 0.0000
-3.8889 <s> BEHALF 0.0000
-3.8889 <s> BEHAVE 0.0000
-3.8889 <s> BEHAVIOUR 0.0000
-3.8889 <s> BEHIND 0.0000
-3.8889 <s> BELIEF 0.0000
-3.5878 <s> BELIEVE 0.0000
-3.8889 <s> BELL 0.0000
-3.5878 <s> BELONG 0.0000
-3.8889 <s> BELOW 0.0000
-3.8889 <s> BELT 0.0000
-3.8889 <s> BEND 0.0000
-3.8889 <s> BENEATH 0.0000
-3.8889 <s> BENEFIT 0.0000
-3.8889 <s> BENT 0.0000
-3.8889 <s> BESIDE 0.0000
-3.8889 <s> BEST 0.0000
-3.8889 <s> BET 0.0000
-3.8889 <s> BETTER 0.0000
-3.8889 <s> BETTING 0.0000
-3.8889 <s> BETWEEN 0.0000
-3.8889 <s> BEYOND 0.0000
-3.8889 <s> BICYCLE 0.0000
-3.8889 <s> BID 0.0000
-3.8889 <s> BIG 0.0000
-3.8889 <s> BIKE 0.0000
-3.8889 <s> BILL 0.0000
-3.8889 <s> BILLION 0.0000
-3.8889 <s> BIN 0.0000
-3.8889 <s> BIOLOGY 0.0000
-3.8889 <s> BIRD 0.0000
-3.8889 <s> BIRTH 0.0000
-3.8889 <s> BIRTHDAY 0.0000
-3.8889 <s> BISCUIT 0.0000
-3.8889 <s> BIT 0.0000
-3.8889 <s> BITE 0.0000
-3.8889 <s> BITTER 0.0000
-3.8889 <s> BITTERLY 0.0000
-3.8889 <s> BLACK 0.0000
-3.8889 <s> BLADE 0.0000
-3.8889 <s> BLAME 0.0000
-3.8889 <s> BLANK 0.0000
-3.8889 <s> BLIND 0.0000
-3.8889 <s> BLOCK 0.0000
-3.8889 <s> BLONDE 0.0000
-3.8889 <s> BLOOD 0.0000
-3.4117 <s> BLOW 0.0000
-3.8889 <s> BLUE 0.0000
-3.8889 <s> BOARD 0.0000
-3.8889 <s> BOAT 0.0000
-3.8889 <s> BODY 0.0000
-3.8889 <s> BOIL 0.0000
-3.8889 <s> BOMB 0.0000
-3.8889 <s> BONE 0.0000
-3.8889 <s> BOOK 0.0000
-3.8889 <s> BOOT 0.0000
-3.8889 <s> BORDER 0.0000
-3.8889 <s> BORE 0.0000
-3.8889 <s> BORED 0.0000
-3.8889 <s> BORING 0.0000
-3.8889 <s> BORN 0.0000
-3.8889 <s> BORROW 0.0000
-3.8889 <s> BOSS 0.0000
-3.8889 <s> BOTH 0.0000
-3.8889 <s> BOTHER 0.0000
-3.8889 <s> BOTTLE 0.0000
-3.8889 <s> BOTTOM 0.0000
-3.8889 <s> BOUND 0.0000
-3.8889 <s> BOWL 0.0000
-3.8889 <s> BOX 0.0000
-3.8889 <s> BOY 0.0000
-3.8889 <s> BOYFRIEND 0.0000
-3.8889 <s> BRAIN 0.0000
-3.8889 <s> BRANCH 0.0000
-3.8889 <s> BRAND 0.0000
-3.8889 <s> BRAVE 0.0000
-3.8889 <s> BREAD 0.0000
-3.0438 <s> BREAK -0.0000
-3.8889 <s> BREAKFAST 0.0000
-3.8889 <s> BREAST 0.0000
-3.8889 <s> BREATH 0.0000
-3.4117 <s> BREATHE 0.0000
-3.8889 <s> BREATHING 0.0000
-3.8889 <s> BREED 0.0000
-3.8889 <s> BRICK 0.0000
-3.8889 <s> BRIDGE 0.0000
-3.8889 <s> BRIEF 0.0000
-3.8889 <s> BRIEFLY 0.0000
-3.8889 <s> BRIGHT 0.0000
-3.8889 <s> BRIGHTLY 0.0000
-3.8889 <s> BRILLIANT 0.0000
-3.1107 <s> BRING 0.0000
-3.8889 <s> BROAD 0.0000
-3.8889 <s> BROADCAST 0.0000
-3.8889 <s> BROADLY 0.0000
-3.8889 <s> BROKEN 0.0000
-3.8889 <s> BROTHER 0.0000
-3.8889 <s> BROWN 0.0000
-3.8889 <s> BRUSH 0.0000
-3.8889 <s> BUBBLE 0.0000
-3.8889 <s> BUDGET 0.0000
-3.5878 <s> BUILD 0.0000
-3.8889 <s> BUILDING 0.0000
-3.8889 <s> BULLET 0.0000
-3.8889 <s> BUNCH 0.0000
-3.5878 <s> BURN 0.0000
-3.8889 <s> BURNT 0.0000
-3.4117 <s> BURST 0.0000
-3.8889 <s> BURY 0.0000
-3.8889 <s> BUS 0.0000
-3.8889 <s> BUSH 0.0000
-3.8889 <s> BUSINESS 0.0000
-3.8889 <s> BUSINESSMAN 0.0000
-3.8889 <s> BUSY 0.0000
-3.8889 <s> BUT 0.0000
-3.8889 <s> BUTTER 0.0000
-3.8889 <s> BUTTON 0.0000
-3.8889 <s> BUY 0.0000
-3.8889 <s> BUYER 0.0000
-3.8889 <s> BY 0.0000
-3.8889 <s> BYE 0.0000
-3.8889 <s> CABINET 0.0000
-3.8889 <s> CABLE 0.0000
-3.8889 <s> CAKE 0.0000
-3.8889 <s> CALCULATE 0.0000
-3.8889 <s> CALCULATION 0.0000
-3.1899 <s> CALL 0.0000
-3.8889 <s> CALLED 0.0000
-3.5878 <s> CALM 0.0000
-3.8889 <s> CALMLY 0.0000
-3.8889 <s> CAMERA 0.0000
-3.8889 <s> CAMP 0.0000
-3.8889 <s> CAMPAIGN 0.0000
-3.8889 <s> CAMPING 0.0000
-3.5878 <s> CAN 0.0000
-3.8889 <s> CANCEL 0.0000
-3.8889 <s> CANCER 0.0000
-3.8889 <s> CANDIDATE 0.0000
-3.8889 <s> CANDY 0.0000
-3.8889 <s> CANNOT 0.0000
-3.8889 <s> CAP 0.0000
-3.8889 <s> CAPABLE 0.0000
-3.8889 <s> CAPACITY 0.0000
-3.8889 <s> CAPITAL 0.0000
-3.8889 <s> CAPTAIN 0.0000
-3.8889 <s> CAPTURE 0.0000
-3.8889 <s> CAR 0.0000
-3.8889 <s> CARD 0.0000
-3.8889 <s> CARDBOARD 0.0000
-3.5878 <s> CARE 0.0000
-3.8889 <s> CAREER 0.0000
-3.8889 <s> CAREFUL 0.0000
-3.8889 <s> CAREFULLY 0.0000
-3.8889 <s> CARELESS 0.0000
-3.8889 <s> CARELESSLY 0.0000
-3.8889 <s> CARPET 0.0000
-3.8889 <s> CARROT 0.0000
-3.4117 <s> CARRY 0.0000
-3.8889 <s> CASE 0.0000
-3.8889 <s> CASH 0.0000
-3.8889 <s> CAST 0.0000
-3.8889 <s> CASTLE 0.0000
-3.8889 <s> CAT 0.0000
-3.5878 <s> CATCH 0.0000
-3.8889 <s> CATEGORY 0.0000
-3.8889 <s> CAUSE 0.0000
-3.8889 <s> CD 0.0000
-3.8889 <s> CEASE 0.0000
-3.8889 <s> CEILING 0.0000
-3.8889 <s> CELEBRATE 0.0000
-3.8889 <s> CELEBRATION 0.0000
-3.5878 <s> CELL 0.0000
-3.8889 <s> CENT 0.0000
-3.8889 <s> CENTIMETRE 0.0000
-3.8889 <s> CENTRAL 0.0000
-3.8889 <s> CENTRE 0.0000
-3.8889 <s> CENTURY 0.0000
-3.8889 <s> CEREMONY 0.0000
-3.8889 <s> CERTAIN 0.0000
-3.8889 <s> CERTAINLY 0.0000
-3.8889 <s> CERTIFICATE 0.0000
-3.8889 <s> CHAIN 0.0000
-3.8889 <s> CHAIR 0.0000
-3.8889 <s> CHAIRMAN 0.0000
-3.8889 <s> CHAIRWOMAN 0.0000
-3.8889 <s> CHALLENGE 0.0000
-3.8889 <s> CHAMBER 0.0000
-3.8889 <s> CHANCE 0.0000
-3.5878 <s> CHANGE 0.0000
-3.8889 <s> CHANNEL 0.0000
-3.8889 <s> CHAPTER 0.0000
-3.8889 <s> CHARACTER 0.0000
-3.8889 <s> CHARACTERISTIC 0.0000
-3.8889 <s> CHARGE 0.0000
-3.8889 <s> CHARITY 0.0000
-3.8889 <s> CHART 0.0000
-3.5878 <s> CHASE 0.0000
-3.8889 <s> CHAT 0.0000
-3.8889 <s> CHEAP 0.0000
-3.8889 <s> CHEAPLY 0.0000
-3.5878 <s> CHEAT 0.0000
-3.0438 <s> CHECK -0.0000
-3.8889 <s> CHEEK 0.0000
-3.8889 <s> CHEERFUL 0.0000
-3.8889 <s> CHEERFULLY 0.0000
-3.8889 <s> CHEESE 0.0000
-3.8889 <s> CHEMICAL 0.0000
-3.8889 <s> CHEMIST 0.0000
-3.8889 <s> CHEMISTRY 0.0000
-3.8889 <s> CHEQUE 0.0000
-3.8889 <s> CHEST 0.0000
-3.8889 <s> CHEW 0.0000
-3.8889 <s> CHICKEN 0.0000
-3.8889 <s> CHIEF 0.0000
-3.8889 <s> CHILD 0.0000
-3.8889 <s> CHIN 0.0000
-3.8889 <s> CHIP 0.0000
-3.8889 <s> CHOCOLATE 0.0000
-3.8889 <s> CHOICE 0.0000
-3.8889 <s> CHOOSE 0.0000
-3.4117 <s> CHOP 0.0000
-3.8889 <s> CHURCH 0.0000
-3.8889 <s> CIGARETTE 0.0000
-3.8889 <s> CINEMA 0.0000
-3.8889 <s> CIRCLE 0.0000
-3.8889 <s> CIRCUMSTANCE 0.0000
-3.8889 <s> CITIZEN 0.0000
-3.8889 <s> CITY 0.0000
-3.8889 <s> CIVIL 0.0000
-3.8889 <s> CLAIM 0.0000
-3.8889 <s> CLAP 0.0000
-3.8889 <s> CLASS 0.0000
-3.8889 <s> CLASSIC 0.0000
-3.8889 <s> CLASSROOM 0.0000
-3.5878 <s> CLEAN 0.0000
-3.4117 <s> CLEAR 0.0000
-3.8889 <s> CLEARLY 0.0000
-3.8889 <s> CLERK 0.0000
-3.8889 <s> CLEVER 0.0000
-3.8889 <s> CLICK 0.0000
-3.8889 <s> CLIENT 0.0000
-3.8889 <s> CLIMATE 0.0000
-3.8889 <s> CLIMB 0.0000
-3.8889 <s> CLIMBING 0.0000
-3.8889 <s> CLOCK 0.0000
-3.5878 <s> CLOSE 0.0000
-3.8889 <s> CLOSED 0.0000
-3.8889 <s> CLOSELY 0.0000
-3.8889 <s> CLOSET 0.0000
-3.8889 <s> CLOTH 0.0000
-3.8889 <s> CLOTHES 0.0000
-3.8889 <s> CLOTHING 0.0000
-3.8889 <s> CLOUD 0.0000
-3.8889 <s> CLUB 0.0000
-3.8889 <s> COACH 0.0000
-3.8889 <s> COAL 0.0000
-3.8889 <s> COAST 0.0000
-3.8889 <s> COAT 0.0000
-3.8889 <s> CODE 0.0000
-3.8889 <s> COFFEE 0.0000
-3.8889 <s> COIN 0.0000
-3.8889 <s> COLD 0.0000
-3.8889 <s> COLDLY 0.0000
-3.8889 <s> COLLAPSE 0.0000
-3.8889 <s> COLLEAGUE 0.0000
-3.8889 <s> COLLECT 0.0000
-3.8889 <s> COLLECTION 0.0000
-3.8889 <s> COLLEGE 0.0000
-3.8889 <s> COLOUR 0.0000
-3.8889 <s> COLOURED 0.0000
-3.8889 <s> COLUMN 0.0000
-3.8889 <s> COMBINATION 0.0000
-3.8889 <s> COMBINE 0.0000
-2.8097 <s> COME 0.0000
-3.8889 <s> COMEDY 0.0000
-3.8889 <s> COMFORT 0.0000
-3.8889 <s> COMFORTABLE 0.0000
-3.8889 <s> COMFORTABLY 0.0000
-3.8889 <s> COMMAND 0.0000
-3.8889 <s> COMMENT 0.0000
-3.8889 <s> COMMERCIAL 0.0000
-3.8889 <s> COMMISSION 0.0000
-3.8889 <s> COMMIT 0.0000
-3.8889 <s> COMMITMENT 0.0000
-3.8889 <s> COMMITTEE 0.0000
-3.8889 <s> COMMON 0.0000
-3.8889 <s> COMMONLY 0.0000
-3.8889 <s> COMMUNICATE 0.0000
-3.8889 <s> COMMUNICATION 0.0000
-3.8889 <s> COMMUNITY 0.0000
-3.8889 <s> COMPANY 0.0000
-3.8889 <s> COMPARE 0.0000
-3.8889 <s> COMPARISON 0.0000
-3.8889 <s> COMPETE 0.0000
-3.8889 <s> COMPETITION 0.0000
-3.8889 <s> COMPETITIVE 0.0000
-3.8889 <s> COMPLAIN 0.0000
-3.8889 <s> COMPLAINT 0.0000
-3.8889 <s> COMPLETE 0.0000
-3.8889 <s> COMPLETELY 0.0000
-3.8889 <s> COMPLEX 0.0000
-3.8889 <s> COMPLICATE 0.0000
-3.8889 <s> COMPLICATED 0.0000
-3.8889 <s> COMPUTER 0.0000
-3.5878 <s> CONCENTRATE 0.0000
-3.8889 <s> CONCENTRATION 0.0000
-3.8889 <s> CONCEPT 0.0000
-3.8889 <s> CONCERN 0.0000
-3.8889 <s> CONCERNED 0.0000
-3.8889 <s> CONCERNING 0.0000
-3.8889 <s> CONCERT 0.0000
-3.8889 <s> CONCLUDE 0.0000
-3.8889 <s> CONCLUSION 0.0000
-3.8889 <s> CONCRETE 0.0000
-3.8889 <s> CONDITION 0.0000
-3.5878 <s> CONDUCT 0.0000
-3.8889 <s> CONFERENCE 0.0000
-3.8889 <s> CONFIDENCE 0.0000
-3.8889 <s> CONFIDENT 0.0000
-3.8889 <s> CONFIDENTLY 0.0000
-3.8889 <s> CONFINE 0.0000
-3.8889 <s> CONFINED 0.0000
-3.8889 <s> CONFIRM 0.0000
-3.8889 <s> CONFLICT 0.0000
-3.8889 <s> CONFRONT 0.0000
-3.8889 <s> CONFUSE 0.0000
-3.8889 <s> CONFUSED 0.0000
-3.8889 <s> CONFUSING 0.0000
-3.8889 <s> CONFUSION 0.0000
-3.8889 <s> CONGRATULATE 0.0000
-3.8889 <s> CONGRATULATION 0.0000
-3.8889 <s> CONGRESS 0.0000
-3.8889 <s> CONNECT 0.0000
-3.8889 <s> CONNECTED 0.0000
-3.8889 <s> CONNECTION 0.0000
-3.8889 <s> CONSCIOUS 0.0000
-3.8889 <s> CONSEQUENCE 0.0000
-3.8889 <s> CONSERVATIVE 0.0000
-3.8889 <s> CONSIDER 0.0000
-3.8889 <s> CONSIDERABLE 0.0000
-3.8889 <s> CONSIDERABLY 0.0000
-3.8889 <s> CONSIDERATION 0.0000
-3.5878 <s> CONSIST 0.0000
-3.8889 <s> CONSTANT 0.0000
-3.8889 <s> CONSTANTLY 0.0000
-3.8889 <s> CONSTRUCT 0.0000
-3.8889 <s> CONSTRUCTION 0.0000
-3.8889 <s> CONSULT 0.0000
-3.8889 <s> CONSUMER 0.0000
-3.8889 <s> CONTACT 0.0000
-3.8889 <s> CONTAIN 0.0000
-3.8889 <s> CONTAINER 0.0000
-3.8889 <s> CONTEMPORARY 0.0000
-3.8889 <s> CONTENT 0.0000
-3.8889 <s> CONTEST 0.0000
-3.8889 <s> CONTEXT 0.0000
-3.8889 <s> CONTINENT 0.0000
-3.8889 <s> CONTINUE 0.0000
-3.8889 <s> CONTINUOUS 0.0000
-3.8889 <s> CONTINUOUSLY 0.0000
-3.5878 <s> CONTRACT 0.0000
-3.5878 <s> CONTRAST 0.0000
-3.8889 <s> CONTRASTING 0.0000
-3.8889 <s> CONTRIBUTE 0.0000
-3.8889 <s> CONTRIBUTION 0.0000
-3.8889 <s> CONTROL 0.0000
-3.8889 <s> CONTROLLED 0.0000
-3.8889 <s> CONVENIENT 0.0000
-3.8889 <s> CONVENTION 0.0000
-3.8889 <s> CONVENTIONAL 0.0000
-3.8889 <s> CONVERSATION 0.0000
-3.8889 <s> CONVERT 0.0000
-3.8889 <s> CONVINCE 0.0000
-3.8889 <s> COOK 0.0000
-3.8889 <s> COOKER 0.0000
-3.8889 <s> COOKIE 0.0000
-3.8889 <s> COOKING 0.0000
-3.5878 <s> COOL 0.0000
-3.8889 <s> COPE 0.0000
-3.8889 <s> COPY 0.0000
-3.8889 <s> CORE 0.0000
-3.8889 <s> CORNER 0.0000
-3.8889 <s> CORRECT 0.0000
-3.8889 <s> CORRECTLY 0.0000
-3.8889 <s> COST 0.0000
-3.8889 <s> COTTAGE 0.0000
-3.8889 <s> COTTON 0.0000
-3.8889 <s> COUGH 0.0000
-3.8889 <s> COUGHING 0.0000
-3.8889 <s> COULD 0.0000
-3.8889 <s> COUNCIL 0.0000
-3.5878 <s> COUNT 0.0000
-3.8889 <s> COUNTER 0.0000
-3.8889 <s> COUNTRY 0.0000
-3.8889 <s> COUNTRYSIDE 0.0000
-3.8889 <s> COUNTY 0.0000
-3.8889 <s> COUPLE 0.0000
-3.8889 <s> COURAGE 0.0000
-3.8889 <s> COURSE 0.0000
-3.8889 <s> COURT 0.0000
